~o
<STREAMINFO> 5 1 1 1 1 1
<VECSIZE> 5<NULLD><USER><DIAGC>
~t "TrP_10"
<TRANSP> 3
 0.000000e+00 1.000000e+00 0.000000e+00
 0.000000e+00 0.000000e+00 1.000000e+00
 0.000000e+00 0.000000e+00 0.000000e+00
~t "TrP_1"
<TRANSP> 3
 0.000000e+00 1.000000e+00 0.000000e+00
 0.000000e+00 0.000000e+00 1.000000e+00
 0.000000e+00 0.000000e+00 0.000000e+00
~t "TrP_2"
<TRANSP> 3
 0.000000e+00 1.000000e+00 0.000000e+00
 0.000000e+00 0.000000e+00 1.000000e+00
 0.000000e+00 0.000000e+00 0.000000e+00
~t "TrP_3"
<TRANSP> 3
 0.000000e+00 1.000000e+00 0.000000e+00
 0.000000e+00 0.000000e+00 1.000000e+00
 0.000000e+00 0.000000e+00 0.000000e+00
~t "TrP_4"
<TRANSP> 3
 0.000000e+00 1.000000e+00 0.000000e+00
 0.000000e+00 0.000000e+00 1.000000e+00
 0.000000e+00 0.000000e+00 0.000000e+00
~t "TrP_6"
<TRANSP> 3
 0.000000e+00 1.000000e+00 0.000000e+00
 0.000000e+00 0.000000e+00 1.000000e+00
 0.000000e+00 0.000000e+00 0.000000e+00
~t "TrP_7"
<TRANSP> 3
 0.000000e+00 1.000000e+00 0.000000e+00
 0.000000e+00 0.000000e+00 1.000000e+00
 0.000000e+00 0.000000e+00 0.000000e+00
~t "TrP_8"
<TRANSP> 3
 0.000000e+00 1.000000e+00 0.000000e+00
 0.000000e+00 0.000000e+00 1.000000e+00
 0.000000e+00 0.000000e+00 0.000000e+00
~t "TrP_9"
<TRANSP> 3
 0.000000e+00 1.000000e+00 0.000000e+00
 0.000000e+00 0.000000e+00 1.000000e+00
 0.000000e+00 0.000000e+00 0.000000e+00
~v "varFloor1"
<VARIANCE> 1
 7.805993e-02
~v "varFloor2"
<VARIANCE> 1
 1.600930e-01
~v "varFloor3"
<VARIANCE> 1
 7.674760e-01
~v "varFloor4"
<VARIANCE> 1
 8.903381e-01
~v "varFloor5"
<VARIANCE> 1
 9.033201e-02
~s "dur_s2_202"
<STREAM> 1
<MEAN> 1
 2.791274e+00
<VARIANCE> 1
 7.995166e-01
<GCONST> 1.614129e+00
<STREAM> 2
<MEAN> 1
 3.275258e+00
<VARIANCE> 1
 1.563815e+00
<GCONST> 2.285006e+00
<STREAM> 3
<MEAN> 1
 7.368092e+00
<VARIANCE> 1
 2.759340e+01
<GCONST> 5.155454e+00
<STREAM> 4
<MEAN> 1
 8.471244e+00
<VARIANCE> 1
 6.205042e+01
<GCONST> 5.965824e+00
<STREAM> 5
<MEAN> 1
 2.302068e+01
<VARIANCE> 1
 1.039016e+02
<GCONST> 6.481321e+00
~s "dur_s2_211"
<STREAM> 1
<MEAN> 1
 2.926207e+00
<VARIANCE> 1
 1.092289e+00
<GCONST> 1.926153e+00
<STREAM> 2
<MEAN> 1
 4.971274e+00
<VARIANCE> 1
 8.556396e+00
<GCONST> 3.984556e+00
<STREAM> 3
<MEAN> 1
 2.632475e+00
<VARIANCE> 1
 3.909767e+00
<GCONST> 3.201355e+00
<STREAM> 4
<MEAN> 1
 1.791495e+00
<VARIANCE> 1
 8.903381e-01
<GCONST> 1.721723e+00
<STREAM> 5
<MEAN> 1
 1.817791e+00
<VARIANCE> 1
 1.129740e+00
<GCONST> 1.959865e+00
~s "dur_s2_230"
<STREAM> 1
<MEAN> 1
 1.034695e+00
<VARIANCE> 1
 7.805993e-02
<GCONST> -7.124014e-01
<STREAM> 2
<MEAN> 1
 1.563526e+00
<VARIANCE> 1
 8.250176e-01
<GCONST> 1.645527e+00
<STREAM> 3
<MEAN> 1
 1.470358e+00
<VARIANCE> 1
 7.674760e-01
<GCONST> 1.573229e+00
<STREAM> 4
<MEAN> 1
 1.247796e+00
<VARIANCE> 1
 8.903381e-01
<GCONST> 1.721723e+00
<STREAM> 5
<MEAN> 1
 1.001796e+00
<VARIANCE> 1
 9.033201e-02
<GCONST> -5.663865e-01
~s "dur_s2_250"
<STREAM> 1
<MEAN> 1
 3.197438e+00
<VARIANCE> 1
 2.270262e+00
<GCONST> 2.657772e+00
<STREAM> 2
<MEAN> 1
 3.335445e+00
<VARIANCE> 1
 7.483996e+00
<GCONST> 3.850644e+00
<STREAM> 3
<MEAN> 1
 1.572921e+00
<VARIANCE> 1
 7.674760e-01
<GCONST> 1.573229e+00
<STREAM> 4
<MEAN> 1
 1.624647e+00
<VARIANCE> 1
 8.903381e-01
<GCONST> 1.721723e+00
<STREAM> 5
<MEAN> 1
 1.866201e+00
<VARIANCE> 1
 2.810968e-01
<GCONST> 5.688211e-01
~s "dur_s2_336"
<STREAM> 1
<MEAN> 1
 3.800167e+00
<VARIANCE> 1
 3.180906e+00
<GCONST> 2.995043e+00
<STREAM> 2
<MEAN> 1
 3.808012e+00
<VARIANCE> 1
 4.800163e+00
<GCONST> 3.406527e+00
<STREAM> 3
<MEAN> 1
 2.228508e+00
<VARIANCE> 1
 7.843526e-01
<GCONST> 1.594980e+00
<STREAM> 4
<MEAN> 1
 3.604791e+00
<VARIANCE> 1
 3.464837e+00
<GCONST> 3.080543e+00
<STREAM> 5
<MEAN> 1
 3.795987e+00
<VARIANCE> 1
 2.519104e+00
<GCONST> 2.761780e+00
~s "dur_s2_353"
<STREAM> 1
<MEAN> 1
 4.054750e+00
<VARIANCE> 1
 1.800179e+00
<GCONST> 2.425763e+00
<STREAM> 2
<MEAN> 1
 5.034440e+00
<VARIANCE> 1
 7.452629e+00
<GCONST> 3.846444e+00
<STREAM> 3
<MEAN> 1
 2.937343e+00
<VARIANCE> 1
 8.268390e-01
<GCONST> 1.647732e+00
<STREAM> 4
<MEAN> 1
 4.077187e+00
<VARIANCE> 1
 2.569600e+00
<GCONST> 2.781627e+00
<STREAM> 5
<MEAN> 1
 3.033515e+00
<VARIANCE> 1
 1.648138e+00
<GCONST> 2.337523e+00
~s "dur_s2_363"
<STREAM> 1
<MEAN> 1
 1.279696e+00
<VARIANCE> 1
 2.712235e-01
<GCONST> 5.330648e-01
<STREAM> 2
<MEAN> 1
 1.408123e+00
<VARIANCE> 1
 3.227493e-01
<GCONST> 7.069975e-01
<STREAM> 3
<MEAN> 1
 2.712385e+00
<VARIANCE> 1
 3.829731e+00
<GCONST> 3.180672e+00
<STREAM> 4
<MEAN> 1
 1.932246e+00
<VARIANCE> 1
 1.146100e+00
<GCONST> 1.974242e+00
<STREAM> 5
<MEAN> 1
 1.474782e+00
<VARIANCE> 1
 4.988078e-01
<GCONST> 1.142343e+00
~s "dur_s2_395"
<STREAM> 1
<MEAN> 1
 4.120120e+00
<VARIANCE> 1
 9.832343e-01
<GCONST> 1.820969e+00
<STREAM> 2
<MEAN> 1
 4.340822e+00
<VARIANCE> 1
 1.140612e+01
<GCONST> 4.272027e+00
<STREAM> 3
<MEAN> 1
 1.964135e+00
<VARIANCE> 1
 2.070722e+00
<GCONST> 2.565774e+00
<STREAM> 4
<MEAN> 1
 1.459585e+00
<VARIANCE> 1
 8.903381e-01
<GCONST> 1.721723e+00
<STREAM> 5
<MEAN> 1
 1.528446e+00
<VARIANCE> 1
 8.469028e-01
<GCONST> 1.671708e+00
~s "dur_s2_437"
<STREAM> 1
<MEAN> 1
 3.512778e+00
<VARIANCE> 1
 4.834334e+00
<GCONST> 3.413620e+00
<STREAM> 2
<MEAN> 1
 3.675572e+00
<VARIANCE> 1
 6.958624e+00
<GCONST> 3.777859e+00
<STREAM> 3
<MEAN> 1
 2.007436e+00
<VARIANCE> 1
 1.171981e+00
<GCONST> 1.996572e+00
<STREAM> 4
<MEAN> 1
 2.555937e+00
<VARIANCE> 1
 5.350042e+00
<GCONST> 3.514981e+00
<STREAM> 5
<MEAN> 1
 2.204189e+00
<VARIANCE> 1
 3.182341e+00
<GCONST> 2.995494e+00
~s "dur_s2_487"
<STREAM> 1
<MEAN> 1
 2.532642e+00
<VARIANCE> 1
 4.226959e+00
<GCONST> 3.279360e+00
<STREAM> 2
<MEAN> 1
 1.644969e+00
<VARIANCE> 1
 6.559927e-01
<GCONST> 1.416271e+00
<STREAM> 3
<MEAN> 1
 1.340985e+00
<VARIANCE> 1
 7.674760e-01
<GCONST> 1.573229e+00
<STREAM> 4
<MEAN> 1
 1.564725e+00
<VARIANCE> 1
 8.903381e-01
<GCONST> 1.721723e+00
<STREAM> 5
<MEAN> 1
 1.228238e+00
<VARIANCE> 1
 2.314815e-01
<GCONST> 3.746215e-01
~s "dur_s2_572"
<STREAM> 1
<MEAN> 1
 2.856127e+00
<VARIANCE> 1
 1.219635e+00
<GCONST> 2.036429e+00
<STREAM> 2
<MEAN> 1
 2.636257e+00
<VARIANCE> 1
 1.412208e+00
<GCONST> 2.183032e+00
<STREAM> 3
<MEAN> 1
 3.102014e+00
<VARIANCE> 1
 4.109039e+00
<GCONST> 3.251066e+00
<STREAM> 4
<MEAN> 1
 4.148727e+00
<VARIANCE> 1
 2.846855e+00
<GCONST> 2.884092e+00
<STREAM> 5
<MEAN> 1
 7.537402e+00
<VARIANCE> 1
 8.403836e+00
<GCONST> 3.966565e+00
~s "dur_s2_686"
<STREAM> 1
<MEAN> 1
 2.044458e+00
<VARIANCE> 1
 4.259192e-01
<GCONST> 9.843715e-01
<STREAM> 2
<MEAN> 1
 2.237717e+00
<VARIANCE> 1
 5.968003e-01
<GCONST> 1.321704e+00
<STREAM> 3
<MEAN> 1
 1.025640e+00
<VARIANCE> 1
 7.674760e-01
<GCONST> 1.573229e+00
<STREAM> 4
<MEAN> 1
 1.000000e+00
<VARIANCE> 1
 8.903381e-01
<GCONST> 1.721723e+00
<STREAM> 5
<MEAN> 1
 2.564111e+00
<VARIANCE> 1
 1.750180e+00
<GCONST> 2.397596e+00
~s "dur_s2_738"
<STREAM> 1
<MEAN> 1
 3.267902e+00
<VARIANCE> 1
 6.748178e+00
<GCONST> 3.747150e+00
<STREAM> 2
<MEAN> 1
 2.574909e+00
<VARIANCE> 1
 2.477489e+00
<GCONST> 2.745122e+00
<STREAM> 3
<MEAN> 1
 1.466955e+00
<VARIANCE> 1
 1.213155e+00
<GCONST> 2.031101e+00
<STREAM> 4
<MEAN> 1
 1.293649e+00
<VARIANCE> 1
 8.903381e-01
<GCONST> 1.721723e+00
<STREAM> 5
<MEAN> 1
 2.395851e+00
<VARIANCE> 1
 2.539421e+00
<GCONST> 2.769813e+00
~s "dur_s2_780"
<STREAM> 1
<MEAN> 1
 2.977695e+00
<VARIANCE> 1
 9.839498e-01
<GCONST> 1.821697e+00
<STREAM> 2
<MEAN> 1
 6.047715e+00
<VARIANCE> 1
 7.168542e+00
<GCONST> 3.807580e+00
<STREAM> 3
<MEAN> 1
 2.412816e+00
<VARIANCE> 1
 1.823756e+00
<GCONST> 2.438775e+00
<STREAM> 4
<MEAN> 1
 1.577592e+00
<VARIANCE> 1
 8.903381e-01
<GCONST> 1.721723e+00
<STREAM> 5
<MEAN> 1
 1.591695e+00
<VARIANCE> 1
 7.074214e-01
<GCONST> 1.491748e+00
~s "dur_s2_783"
<STREAM> 1
<MEAN> 1
 1.790389e+00
<VARIANCE> 1
 6.366895e-01
<GCONST> 1.386404e+00
<STREAM> 2
<MEAN> 1
 2.500175e+00
<VARIANCE> 1
 1.427849e+00
<GCONST> 2.194046e+00
<STREAM> 3
<MEAN> 1
 1.001745e+00
<VARIANCE> 1
 7.674760e-01
<GCONST> 1.573229e+00
<STREAM> 4
<MEAN> 1
 1.221169e+00
<VARIANCE> 1
 8.903381e-01
<GCONST> 1.721723e+00
<STREAM> 5
<MEAN> 1
 1.000000e+00
<VARIANCE> 1
 9.033201e-02
<GCONST> -5.663865e-01
~s "dur_s2_801"
<STREAM> 1
<MEAN> 1
 2.666780e+00
<VARIANCE> 1
 2.471410e+00
<GCONST> 2.742666e+00
<STREAM> 2
<MEAN> 1
 2.155982e+00
<VARIANCE> 1
 1.804601e+00
<GCONST> 2.428216e+00
<STREAM> 3
<MEAN> 1
 2.112674e+00
<VARIANCE> 1
 2.983922e+00
<GCONST> 2.931115e+00
<STREAM> 4
<MEAN> 1
 1.501258e+00
<VARIANCE> 1
 8.903381e-01
<GCONST> 1.721723e+00
<STREAM> 5
<MEAN> 1
 2.568589e+00
<VARIANCE> 1
 2.059271e+00
<GCONST> 2.560229e+00
~s "dur_s2_827"
<STREAM> 1
<MEAN> 1
 3.410936e+00
<VARIANCE> 1
 3.267042e+00
<GCONST> 3.021762e+00
<STREAM> 2
<MEAN> 1
 4.919566e+00
<VARIANCE> 1
 7.859149e+00
<GCONST> 3.899555e+00
<STREAM> 3
<MEAN> 1
 7.384925e+00
<VARIANCE> 1
 1.823125e+01
<GCONST> 4.741014e+00
<STREAM> 4
<MEAN> 1
 3.850300e+00
<VARIANCE> 1
 4.509531e+00
<GCONST> 3.344070e+00
<STREAM> 5
<MEAN> 1
 2.219184e+00
<VARIANCE> 1
 6.383076e-01
<GCONST> 1.388942e+00
~s "dur_s2_837"
<STREAM> 1
<MEAN> 1
 1.920938e+00
<VARIANCE> 1
 1.214739e+00
<GCONST> 2.032406e+00
<STREAM> 2
<MEAN> 1
 3.036846e+00
<VARIANCE> 1
 8.971218e+00
<GCONST> 4.031898e+00
<STREAM> 3
<MEAN> 1
 1.394982e+00
<VARIANCE> 1
 7.674760e-01
<GCONST> 1.573229e+00
<STREAM> 4
<MEAN> 1
 1.544722e+00
<VARIANCE> 1
 9.550264e-01
<GCONST> 1.791861e+00
<STREAM> 5
<MEAN> 1
 1.334288e+00
<VARIANCE> 1
 7.151485e-01
<GCONST> 1.502612e+00
~s "dur_s2_874"
<STREAM> 1
<MEAN> 1
 1.598897e+00
<VARIANCE> 1
 6.400099e-01
<GCONST> 1.391605e+00
<STREAM> 2
<MEAN> 1
 1.700528e+00
<VARIANCE> 1
 1.012306e+00
<GCONST> 1.850108e+00
<STREAM> 3
<MEAN> 1
 1.001671e+00
<VARIANCE> 1
 7.674760e-01
<GCONST> 1.573229e+00
<STREAM> 4
<MEAN> 1
 1.000009e+00
<VARIANCE> 1
 8.903381e-01
<GCONST> 1.721723e+00
<STREAM> 5
<MEAN> 1
 1.703629e+00
<VARIANCE> 1
 1.599895e+00
<GCONST> 2.307815e+00
~s "dur_s2_875"
<STREAM> 1
<MEAN> 1
 3.066935e+00
<VARIANCE> 1
 2.128212e+00
<GCONST> 2.593159e+00
<STREAM> 2
<MEAN> 1
 4.016018e+00
<VARIANCE> 1
 9.030440e+00
<GCONST> 4.038478e+00
<STREAM> 3
<MEAN> 1
 1.516937e+00
<VARIANCE> 1
 7.725694e-01
<GCONST> 1.579844e+00
<STREAM> 4
<MEAN> 1
 1.420520e+00
<VARIANCE> 1
 8.903381e-01
<GCONST> 1.721723e+00
<STREAM> 5
<MEAN> 1
 1.513984e+00
<VARIANCE> 1
 6.724930e-01
<GCONST> 1.441113e+00
~s "dur_s2_877"
<STREAM> 1
<MEAN> 1
 2.307314e+00
<VARIANCE> 1
 1.593515e+00
<GCONST> 2.303819e+00
<STREAM> 2
<MEAN> 1
 2.666834e+00
<VARIANCE> 1
 1.926079e+00
<GCONST> 2.493363e+00
<STREAM> 3
<MEAN> 1
 1.100943e+00
<VARIANCE> 1
 7.674760e-01
<GCONST> 1.573229e+00
<STREAM> 4
<MEAN> 1
 1.010407e+00
<VARIANCE> 1
 8.903381e-01
<GCONST> 1.721723e+00
<STREAM> 5
<MEAN> 1
 1.140205e+00
<VARIANCE> 1
 1.205632e-01
<GCONST> -2.777040e-01
~s "dur_s2_895"
<STREAM> 1
<MEAN> 1
 1.889584e+00
<VARIANCE> 1
 7.495906e-01
<GCONST> 1.549649e+00
<STREAM> 2
<MEAN> 1
 1.464739e+00
<VARIANCE> 1
 4.643138e-01
<GCONST> 1.070682e+00
<STREAM> 3
<MEAN> 1
 8.346195e+00
<VARIANCE> 1
 2.092320e+01
<GCONST> 4.878736e+00
<STREAM> 4
<MEAN> 1
 3.614661e+00
<VARIANCE> 1
 4.538407e+00
<GCONST> 3.350453e+00
<STREAM> 5
<MEAN> 1
 2.235592e+00
<VARIANCE> 1
 7.579385e-01
<GCONST> 1.560724e+00
~s "dur_s2_926"
<STREAM> 1
<MEAN> 1
 2.772890e+00
<VARIANCE> 1
 3.112831e+00
<GCONST> 2.973410e+00
<STREAM> 2
<MEAN> 1
 1.694569e+00
<VARIANCE> 1
 4.585938e-01
<GCONST> 1.058287e+00
<STREAM> 3
<MEAN> 1
 2.431257e+00
<VARIANCE> 1
 3.762772e+00
<GCONST> 3.163033e+00
<STREAM> 4
<MEAN> 1
 1.602026e+00
<VARIANCE> 1
 8.903381e-01
<GCONST> 1.721723e+00
<STREAM> 5
<MEAN> 1
 2.241117e+00
<VARIANCE> 1
 3.886006e+00
<GCONST> 3.195259e+00
~s "dur_s2_1025"
<STREAM> 1
<MEAN> 1
 1.770670e+00
<VARIANCE> 1
 8.029625e-01
<GCONST> 1.618430e+00
<STREAM> 2
<MEAN> 1
 2.003108e+00
<VARIANCE> 1
 1.871488e+00
<GCONST> 2.464611e+00
<STREAM> 3
<MEAN> 1
 2.167694e+00
<VARIANCE> 1
 5.499635e+00
<GCONST> 3.542559e+00
<STREAM> 4
<MEAN> 1
 1.484127e+00
<VARIANCE> 1
 8.903381e-01
<GCONST> 1.721723e+00
<STREAM> 5
<MEAN> 1
 1.491259e+00
<VARIANCE> 1
 9.873579e-01
<GCONST> 1.825154e+00
~s "dur_s2_1032"
<STREAM> 1
<MEAN> 1
 3.884341e+00
<VARIANCE> 1
 1.334463e+00
<GCONST> 2.126406e+00
<STREAM> 2
<MEAN> 1
 1.097089e+01
<VARIANCE> 1
 3.514709e+01
<GCONST> 5.397419e+00
<STREAM> 3
<MEAN> 1
 1.023604e+01
<VARIANCE> 1
 3.314344e+01
<GCONST> 5.338722e+00
<STREAM> 4
<MEAN> 1
 7.462034e+00
<VARIANCE> 1
 4.300673e+00
<GCONST> 3.296649e+00
<STREAM> 5
<MEAN> 1
 7.742965e+00
<VARIANCE> 1
 2.040879e+01
<GCONST> 4.853843e+00
~s "dur_s2_1042"
<STREAM> 1
<MEAN> 1
 1.043884e+00
<VARIANCE> 1
 7.805993e-02
<GCONST> -7.124014e-01
<STREAM> 2
<MEAN> 1
 1.816496e+00
<VARIANCE> 1
 1.292036e+00
<GCONST> 2.094096e+00
<STREAM> 3
<MEAN> 1
 1.484748e+00
<VARIANCE> 1
 7.674760e-01
<GCONST> 1.573229e+00
<STREAM> 4
<MEAN> 1
 1.325011e+00
<VARIANCE> 1
 8.903381e-01
<GCONST> 1.721723e+00
<STREAM> 5
<MEAN> 1
 1.272578e+00
<VARIANCE> 1
 4.670907e-01
<GCONST> 1.076645e+00
~s "dur_s2_1089"
<STREAM> 1
<MEAN> 1
 7.174045e+00
<VARIANCE> 1
 2.400188e+01
<GCONST> 5.016009e+00
<STREAM> 2
<MEAN> 1
 6.460611e+00
<VARIANCE> 1
 2.341986e+01
<GCONST> 4.991462e+00
<STREAM> 3
<MEAN> 1
 7.457037e+00
<VARIANCE> 1
 9.068204e+01
<GCONST> 6.345237e+00
<STREAM> 4
<MEAN> 1
 3.222974e+01
<VARIANCE> 1
 3.576832e+02
<GCONST> 7.717525e+00
<STREAM> 5
<MEAN> 1
 2.000000e+00
<VARIANCE> 1
 9.033201e-02
<GCONST> -5.663865e-01
~s "dur_s2_40"
<STREAM> 1
<MEAN> 1
 1.795167e+00
<VARIANCE> 1
 1.641038e-01
<GCONST> 3.062069e-02
<STREAM> 2
<MEAN> 1
 1.791648e+00
<VARIANCE> 1
 1.001665e+00
<GCONST> 1.839541e+00
<STREAM> 3
<MEAN> 1
 3.111858e+01
<VARIANCE> 1
 8.204852e+02
<GCONST> 8.547773e+00
<STREAM> 4
<MEAN> 1
 5.985334e+00
<VARIANCE> 1
 4.388782e+01
<GCONST> 5.619514e+00
<STREAM> 5
<MEAN> 1
 4.860878e+00
<VARIANCE> 1
 2.644378e+01
<GCONST> 5.112898e+00
~s "dur_s2_62"
<STREAM> 1
<MEAN> 1
 2.393289e+00
<VARIANCE> 1
 1.477116e+00
<GCONST> 2.227968e+00
<STREAM> 2
<MEAN> 1
 1.835227e+00
<VARIANCE> 1
 6.638933e-01
<GCONST> 1.428243e+00
<STREAM> 3
<MEAN> 1
 1.043421e+00
<VARIANCE> 1
 7.674760e-01
<GCONST> 1.573229e+00
<STREAM> 4
<MEAN> 1
 1.089948e+00
<VARIANCE> 1
 8.903381e-01
<GCONST> 1.721723e+00
<STREAM> 5
<MEAN> 1
 1.000000e+00
<VARIANCE> 1
 9.033201e-02
<GCONST> -5.663865e-01
~s "dur_s2_65"
<STREAM> 1
<MEAN> 1
 2.912832e+00
<VARIANCE> 1
 2.180612e+00
<GCONST> 2.617483e+00
<STREAM> 2
<MEAN> 1
 1.472449e+00
<VARIANCE> 1
 3.922516e-01
<GCONST> 9.020252e-01
<STREAM> 3
<MEAN> 1
 2.034981e+00
<VARIANCE> 1
 1.953585e+00
<GCONST> 2.507543e+00
<STREAM> 4
<MEAN> 1
 1.673013e+00
<VARIANCE> 1
 9.978973e-01
<GCONST> 1.835772e+00
<STREAM> 5
<MEAN> 1
 2.513562e+00
<VARIANCE> 1
 1.835031e+00
<GCONST> 2.444938e+00
~s "dur_s2_91"
<STREAM> 1
<MEAN> 1
 3.871168e+00
<VARIANCE> 1
 2.363743e+00
<GCONST> 2.698123e+00
<STREAM> 2
<MEAN> 1
 4.018944e+00
<VARIANCE> 1
 5.253759e+00
<GCONST> 3.496821e+00
<STREAM> 3
<MEAN> 1
 3.687253e+00
<VARIANCE> 1
 4.895790e+00
<GCONST> 3.426253e+00
<STREAM> 4
<MEAN> 1
 4.212098e+00
<VARIANCE> 1
 5.524883e+00
<GCONST> 3.547139e+00
<STREAM> 5
<MEAN> 1
 4.268019e+00
<VARIANCE> 1
 7.052195e+00
<GCONST> 3.791216e+00
~h "aI~f-#+xx=xx:xx_xx/A/1_1_3/B/xx-xx-xx:xx-xx&xx-xx#xx-xx$xx-xx>xx-xx<xx-xx|xx/C/0+0+0/D/content_1/E/xx+xx:xx+xx&xx+xx#xx+xx/F/0_0/G/11_10/H/xx=xx:1=1&0/I/0_0/J/11+10-1"
<BEGINHMM>
<NUMSTATES> 3
<STATE> 2
~s "dur_s2_1089"
~t "TrP_7"
<ENDHMM>
~h "n~aI-f+#=xx:3_1/A/1_0_2/B/1-1-3:1-1&11-1#9-1$1-1>1-0<10-0|aI/C/0+0+0/D/det_1/E/content+1:10+1&5+0#3+0/F/0_0/G/0_0/H/11=10:1=1&L-L%/I/0_0/J/11+10-1"
<BEGINHMM>
<NUMSTATES> 3
<STATE> 2
~s "dur_s2_202"
~t "TrP_3"
<ENDHMM>
~h "w~I-D+eI=k:3_1/A/1_0_4/B/1-0-3:1-1&5-7#3-7$1-2>1-1<4-6|I/C/1+0+1/D/content_1/E/in+1:4+7&3+3#1+2/F/det_1/G/0_0/H/11=10:1=1&L-L%/I/0_0/J/11+10-1"
<BEGINHMM>
<NUMSTATES> 3
<STATE> 2
~s "dur_s2_877"
~t "TrP_6"
<ENDHMM>
~h "E~v-@+D=@:2_1/A/1_1_2/B/0-0-2:2-1&2-10#1-10$1-2>1-1<1-9|@/C/1+0+2/D/0_0/E/content+2:1+10&1+4#0+2/F/det_1/G/0_0/H/11=10:1=1&L-L%/I/0_0/J/11+10-1"
<BEGINHMM>
<NUMSTATES> 3
<STATE> 2
~s "dur_s2_837"
~t "TrP_2"
<ENDHMM>
~h "n~w-I+D=eI:2_2/A/1_0_4/B/1-0-3:1-1&5-7#3-7$1-2>1-1<4-6|I/C/1+0+1/D/content_1/E/in+1:4+7&3+3#1+2/F/det_1/G/0_0/H/11=10:1=1&L-L%/I/0_0/J/11+10-1"
<BEGINHMM>
<NUMSTATES> 3
<STATE> 2
~s "dur_s2_783"
~t "TrP_4"
<ENDHMM>
~h "k~w-I+k=s:3_2/A/1_0_1/B/1-0-4:1-1&7-5#5-5$1-2>1-1<6-4|I/C/1+0+4/D/det_1/E/content+1:6+5&3+2#3+1/F/content_1/G/0_0/H/11=10:1=1&L-L%/I/0_0/J/11+10-1"
<BEGINHMM>
<NUMSTATES> 3
<STATE> 2
~s "dur_s2_874"
~t "TrP_4"
<ENDHMM>
~h "Q~v-D+@=n:1_2/A/1_0_2/B/1-0-2:1-1&10-2#8-2$1-2>1-1<9-1|@/C/1+1+3/D/in_1/E/det+1:9+2&5+1#2+1/F/content_1/G/0_0/H/11=10:1=1&L-L%/I/0_0/J/11+10-1"
<BEGINHMM>
<NUMSTATES> 3
<STATE> 2
~s "dur_s2_487"
~t "TrP_6"
<ENDHMM>
~h "xx~#-s+E=v:1_2/A/0_0_0/B/1-1-2:1-2&1-11#1-10$1-2>0-2<0-10|E/C/0+0+2/D/0_0/E/content+2:1+10&1+4#0+2/F/det_1/G/0_0/H/11=10:1=1&L-L%/I/0_0/J/11+10-1"
<BEGINHMM>
<NUMSTATES> 3
<STATE> 2
~s "dur_s2_827"
~t "TrP_1"
<ENDHMM>
~h "w~I-k+s=n:4_1/A/1_0_1/B/1-0-4:1-1&7-5#5-5$1-2>1-1<6-4|I/C/1+0+4/D/det_1/E/content+1:6+5&3+2#3+1/F/content_1/G/0_0/H/11=10:1=1&L-L%/I/0_0/J/11+10-1"
<BEGINHMM>
<NUMSTATES> 3
<STATE> 2
~s "dur_s2_437"
~t "TrP_7"
<ENDHMM>
~h "I~p-Q+v=D:1_2/A/1_0_4/B/1-0-2:1-1&9-3#7-3$1-2>1-1<8-2|Q/C/1+0+2/D/content_1/E/in+1:8+3&5+1#1+2/F/det_1/G/0_0/H/11=10:1=1&L-L%/I/0_0/J/11+10-1"
<BEGINHMM>
<NUMSTATES> 3
<STATE> 2
~s "dur_s2_1025"
~t "TrP_9"
<ENDHMM>
~h "@~D-@+t=w:2_1/A/0_0_2/B/1-0-2:1-1&3-9#1-9$1-2>2-1<2-8|@/C/1+0+4/D/content_2/E/det+1:2+9&2+4#1+1/F/content_1/G/0_0/H/11=10:1=1&L-L%/I/0_0/J/11+10-1"
<BEGINHMM>
<NUMSTATES> 3
<STATE> 2
~s "dur_s2_1042"
~t "TrP_2"
<ENDHMM>
~h "n~I-p+Q=v:4_1/A/1_0_4/B/1-0-4:1-1&8-4#6-4$1-2>1-1<7-3|I/C/1+0+2/D/content_1/E/content+1:7+4&4+1#1+3/F/in_1/G/0_0/H/11=10:1=1&L-L%/I/0_0/J/11+10-1"
<BEGINHMM>
<NUMSTATES> 3
<STATE> 2
~s "dur_s2_336"
~t "TrP_10"
<ENDHMM>
~h "@~t-w+aI=n:2_3/A/1_0_2/B/1-0-4:1-1&4-8#2-8$1-2>1-1<3-7|aI/C/1+0+3/D/det_1/E/content+1:3+8&2+3#2+3/F/in_1/G/0_0/H/11=10:1=1&L-L%/I/0_0/J/11+10-1"
<BEGINHMM>
<NUMSTATES> 3
<STATE> 2
~s "dur_s2_686"
~t "TrP_9"
<ENDHMM>
~h "v~D-@+n=aI:2_1/A/1_0_2/B/1-0-2:1-1&10-2#8-2$1-2>1-1<9-1|@/C/1+1+3/D/in_1/E/det+1:9+2&5+1#2+1/F/content_1/G/0_0/H/11=10:1=1&L-L%/I/0_0/J/11+10-1"
<BEGINHMM>
<NUMSTATES> 3
<STATE> 2
~s "dur_s2_230"
~t "TrP_2"
<ENDHMM>
~h "I~D-eI+k=w:1_1/A/1_0_3/B/1-0-1:1-1&6-6#4-6$1-2>1-1<5-5|eI/C/1+0+4/D/in_1/E/det+1:5+6&3+3#2+1/F/content_1/G/0_0/H/11=10:1=1&L-L%/I/0_0/J/11+10-1"
<BEGINHMM>
<NUMSTATES> 3
<STATE> 2
~s "dur_s2_363"
~t "TrP_3"
<ENDHMM>
~h "xx~xx-#+s=E:xx_xx/A/0_0_0/B/xx-xx-xx:xx-xx&xx-xx#xx-xx$xx-xx>xx-xx<xx-xx|xx/C/1+1+2/D/0_0/E/xx+xx:xx+xx&xx+xx#xx+xx/F/content_2/G/0_0/H/xx=xx:1=1&0/I/11_10/J/11+10-1"
<BEGINHMM>
<NUMSTATES> 3
<STATE> 2
~s "dur_s2_40"
~t "TrP_7"
<ENDHMM>
~h "s~E-v+@=D:1_2/A/1_1_2/B/0-0-2:2-1&2-10#1-10$1-2>1-1<1-9|@/C/1+0+2/D/0_0/E/content+2:1+10&1+4#0+2/F/det_1/G/0_0/H/11=10:1=1&L-L%/I/0_0/J/11+10-1"
<BEGINHMM>
<NUMSTATES> 3
<STATE> 2
~s "dur_s2_65"
~t "TrP_9"
<ENDHMM>
~h "s~n-I+p=Q:3_2/A/1_0_4/B/1-0-4:1-1&8-4#6-4$1-2>1-1<7-3|I/C/1+0+2/D/content_1/E/content+1:7+4&4+1#1+3/F/in_1/G/0_0/H/11=10:1=1&L-L%/I/0_0/J/11+10-1"
<BEGINHMM>
<NUMSTATES> 3
<STATE> 2
~s "dur_s2_875"
~t "TrP_4"
<ENDHMM>
~h "w~aI-n+w=I:4_1/A/1_0_2/B/1-0-4:1-1&4-8#2-8$1-2>1-1<3-7|aI/C/1+0+3/D/det_1/E/content+1:3+8&2+3#2+3/F/in_1/G/0_0/H/11=10:1=1&L-L%/I/0_0/J/11+10-1"
<BEGINHMM>
<NUMSTATES> 3
<STATE> 2
~s "dur_s2_395"
~t "TrP_8"
<ENDHMM>
~h "D~eI-k+w=I:1_4/A/1_0_1/B/1-0-4:1-1&7-5#5-5$1-2>1-1<6-4|I/C/1+0+4/D/det_1/E/content+1:6+5&3+2#3+1/F/content_1/G/0_0/H/11=10:1=1&L-L%/I/0_0/J/11+10-1"
<BEGINHMM>
<NUMSTATES> 3
<STATE> 2
~s "dur_s2_353"
~t "TrP_7"
<ENDHMM>
~h "v~@-D+@=t:1_2/A/0_0_2/B/1-0-2:1-1&3-9#1-9$1-2>2-1<2-8|@/C/1+0+4/D/content_2/E/det+1:2+9&2+4#1+1/F/content_1/G/0_0/H/11=10:1=1&L-L%/I/0_0/J/11+10-1"
<BEGINHMM>
<NUMSTATES> 3
<STATE> 2
~s "dur_s2_801"
~t "TrP_6"
<ENDHMM>
~h "aI~n-w+I=D:1_3/A/1_0_4/B/1-0-3:1-1&5-7#3-7$1-2>1-1<4-6|I/C/1+0+1/D/content_1/E/in+1:4+7&3+3#1+2/F/det_1/G/0_0/H/11=10:1=1&L-L%/I/0_0/J/11+10-1"
<BEGINHMM>
<NUMSTATES> 3
<STATE> 2
~s "dur_s2_738"
~t "TrP_9"
<ENDHMM>
~h "D~@-n+aI=f:1_3/A/1_0_2/B/1-1-3:1-1&11-1#9-1$1-1>1-0<10-0|aI/C/0+0+0/D/det_1/E/content+1:10+1&5+0#3+0/F/0_0/G/0_0/H/11=10:1=1&L-L%/I/0_0/J/11+10-1"
<BEGINHMM>
<NUMSTATES> 3
<STATE> 2
~s "dur_s2_250"
~t "TrP_8"
<ENDHMM>
~h "k~s-n+I=p:2_3/A/1_0_4/B/1-0-4:1-1&8-4#6-4$1-2>1-1<7-3|I/C/1+0+2/D/content_1/E/content+1:7+4&4+1#1+3/F/in_1/G/0_0/H/11=10:1=1&L-L%/I/0_0/J/11+10-1"
<BEGINHMM>
<NUMSTATES> 3
<STATE> 2
~s "dur_s2_780"
~t "TrP_8"
<ENDHMM>
~h "t~w-aI+n=w:3_2/A/1_0_2/B/1-0-4:1-1&4-8#2-8$1-2>1-1<3-7|aI/C/1+0+3/D/det_1/E/content+1:3+8&2+3#2+3/F/in_1/G/0_0/H/11=10:1=1&L-L%/I/0_0/J/11+10-1"
<BEGINHMM>
<NUMSTATES> 3
<STATE> 2
~s "dur_s2_91"
~t "TrP_4"
<ENDHMM>
~h "#~s-E+v=@:2_1/A/0_0_0/B/1-1-2:1-2&1-11#1-10$1-2>0-2<0-10|E/C/0+0+2/D/0_0/E/content+2:1+10&1+4#0+2/F/det_1/G/0_0/H/11=10:1=1&L-L%/I/0_0/J/11+10-1"
<BEGINHMM>
<NUMSTATES> 3
<STATE> 2
~s "dur_s2_211"
~t "TrP_6"
<ENDHMM>
~h "I~k-s+n=I:1_4/A/1_0_4/B/1-0-4:1-1&8-4#6-4$1-2>1-1<7-3|I/C/1+0+2/D/content_1/E/content+1:7+4&4+1#1+3/F/in_1/G/0_0/H/11=10:1=1&L-L%/I/0_0/J/11+10-1"
<BEGINHMM>
<NUMSTATES> 3
<STATE> 2
~s "dur_s2_895"
~t "TrP_1"
<ENDHMM>
~h "eI~k-w+I=k:2_3/A/1_0_1/B/1-0-4:1-1&7-5#5-5$1-2>1-1<6-4|I/C/1+0+4/D/det_1/E/content+1:6+5&3+2#3+1/F/content_1/G/0_0/H/11=10:1=1&L-L%/I/0_0/J/11+10-1"
<BEGINHMM>
<NUMSTATES> 3
<STATE> 2
~s "dur_s2_62"
~t "TrP_9"
<ENDHMM>
~h "D~@-t+w=aI:1_4/A/1_0_2/B/1-0-4:1-1&4-8#2-8$1-2>1-1<3-7|aI/C/1+0+3/D/det_1/E/content+1:3+8&2+3#2+3/F/in_1/G/0_0/H/11=10:1=1&L-L%/I/0_0/J/11+10-1"
<BEGINHMM>
<NUMSTATES> 3
<STATE> 2
~s "dur_s2_572"
~t "TrP_4"
<ENDHMM>
~h "p~Q-v+D=@:2_1/A/1_0_4/B/1-0-2:1-1&9-3#7-3$1-2>1-1<8-2|Q/C/1+0+2/D/content_1/E/in+1:8+3&5+1#1+2/F/det_1/G/0_0/H/11=10:1=1&L-L%/I/0_0/J/11+10-1"
<BEGINHMM>
<NUMSTATES> 3
<STATE> 2
~s "dur_s2_926"
~t "TrP_9"
<ENDHMM>
~h "@~n-aI+f=#:2_2/A/1_0_2/B/1-1-3:1-1&11-1#9-1$1-1>1-0<10-0|aI/C/0+0+0/D/det_1/E/content+1:10+1&5+0#3+0/F/0_0/G/0_0/H/11=10:1=1&L-L%/I/0_0/J/11+10-1"
<BEGINHMM>
<NUMSTATES> 3
<STATE> 2
~s "dur_s2_1032"
~t "TrP_4"
<ENDHMM>
