~o
<STREAMINFO> 5 1 1 1 1 1
<VECSIZE> 5<NULLD><USER><DIAGC>
~t "TrP_10"
<TRANSP> 3
 0.000000e+00 1.000000e+00 0.000000e+00
 0.000000e+00 0.000000e+00 1.000000e+00
 0.000000e+00 0.000000e+00 0.000000e+00
~t "TrP_1"
<TRANSP> 3
 0.000000e+00 1.000000e+00 0.000000e+00
 0.000000e+00 0.000000e+00 1.000000e+00
 0.000000e+00 0.000000e+00 0.000000e+00
~t "TrP_2"
<TRANSP> 3
 0.000000e+00 1.000000e+00 0.000000e+00
 0.000000e+00 0.000000e+00 1.000000e+00
 0.000000e+00 0.000000e+00 0.000000e+00
~t "TrP_3"
<TRANSP> 3
 0.000000e+00 1.000000e+00 0.000000e+00
 0.000000e+00 0.000000e+00 1.000000e+00
 0.000000e+00 0.000000e+00 0.000000e+00
~t "TrP_4"
<TRANSP> 3
 0.000000e+00 1.000000e+00 0.000000e+00
 0.000000e+00 0.000000e+00 1.000000e+00
 0.000000e+00 0.000000e+00 0.000000e+00
~t "TrP_6"
<TRANSP> 3
 0.000000e+00 1.000000e+00 0.000000e+00
 0.000000e+00 0.000000e+00 1.000000e+00
 0.000000e+00 0.000000e+00 0.000000e+00
~t "TrP_7"
<TRANSP> 3
 0.000000e+00 1.000000e+00 0.000000e+00
 0.000000e+00 0.000000e+00 1.000000e+00
 0.000000e+00 0.000000e+00 0.000000e+00
~t "TrP_8"
<TRANSP> 3
 0.000000e+00 1.000000e+00 0.000000e+00
 0.000000e+00 0.000000e+00 1.000000e+00
 0.000000e+00 0.000000e+00 0.000000e+00
~t "TrP_9"
<TRANSP> 3
 0.000000e+00 1.000000e+00 0.000000e+00
 0.000000e+00 0.000000e+00 1.000000e+00
 0.000000e+00 0.000000e+00 0.000000e+00
~v "varFloor1"
<VARIANCE> 1
 7.805993e-02
~v "varFloor2"
<VARIANCE> 1
 1.600930e-01
~v "varFloor3"
<VARIANCE> 1
 7.674760e-01
~v "varFloor4"
<VARIANCE> 1
 8.903381e-01
~v "varFloor5"
<VARIANCE> 1
 9.033201e-02
~s "dur_s2_121"
<STREAM> 1
<MEAN> 1
 5.008975e+00
<VARIANCE> 1
 4.370883e+00
<GCONST> 3.312842e+00
<STREAM> 2
<MEAN> 1
 4.704460e+00
<VARIANCE> 1
 9.473927e+00
<GCONST> 4.086421e+00
<STREAM> 3
<MEAN> 1
 1.876019e+00
<VARIANCE> 1
 7.702240e-01
<GCONST> 1.576803e+00
<STREAM> 4
<MEAN> 1
 1.920246e+00
<VARIANCE> 1
 1.078014e+00
<GCONST> 1.912997e+00
<STREAM> 5
<MEAN> 1
 2.582782e+00
<VARIANCE> 1
 5.023196e+00
<GCONST> 3.451943e+00
~s "dur_s2_181"
<STREAM> 1
<MEAN> 1
 2.479041e+00
<VARIANCE> 1
 4.474890e-01
<GCONST> 1.033774e+00
<STREAM> 2
<MEAN> 1
 2.098610e+00
<VARIANCE> 1
 3.384337e-01
<GCONST> 7.544498e-01
<STREAM> 3
<MEAN> 1
 2.154096e+00
<VARIANCE> 1
 1.519451e+00
<GCONST> 2.256226e+00
<STREAM> 4
<MEAN> 1
 2.819520e+00
<VARIANCE> 1
 3.825631e+00
<GCONST> 3.179600e+00
<STREAM> 5
<MEAN> 1
 4.360366e+00
<VARIANCE> 1
 6.347734e+00
<GCONST> 3.685975e+00
~s "dur_s2_206"
<STREAM> 1
<MEAN> 1
 2.651664e+00
<VARIANCE> 1
 1.697024e+00
<GCONST> 2.366753e+00
<STREAM> 2
<MEAN> 1
 2.861278e+00
<VARIANCE> 1
 3.183812e+00
<GCONST> 2.995956e+00
<STREAM> 3
<MEAN> 1
 6.805936e+00
<VARIANCE> 1
 6.791314e+00
<GCONST> 3.753521e+00
<STREAM> 4
<MEAN> 1
 1.632561e+00
<VARIANCE> 1
 1.608707e+00
<GCONST> 2.313308e+00
<STREAM> 5
<MEAN> 1
 1.000000e+00
<VARIANCE> 1
 9.033201e-02
<GCONST> -5.663865e-01
~s "dur_s2_211"
<STREAM> 1
<MEAN> 1
 2.926207e+00
<VARIANCE> 1
 1.092289e+00
<GCONST> 1.926153e+00
<STREAM> 2
<MEAN> 1
 4.971274e+00
<VARIANCE> 1
 8.556396e+00
<GCONST> 3.984556e+00
<STREAM> 3
<MEAN> 1
 2.632475e+00
<VARIANCE> 1
 3.909767e+00
<GCONST> 3.201355e+00
<STREAM> 4
<MEAN> 1
 1.791495e+00
<VARIANCE> 1
 8.903381e-01
<GCONST> 1.721723e+00
<STREAM> 5
<MEAN> 1
 1.817791e+00
<VARIANCE> 1
 1.129740e+00
<GCONST> 1.959865e+00
~s "dur_s2_226"
<STREAM> 1
<MEAN> 1
 2.117198e+00
<VARIANCE> 1
 1.732526e-01
<GCONST> 8.487213e-02
<STREAM> 2
<MEAN> 1
 1.993538e+00
<VARIANCE> 1
 4.443874e-01
<GCONST> 1.026819e+00
<STREAM> 3
<MEAN> 1
 1.498332e+00
<VARIANCE> 1
 7.674760e-01
<GCONST> 1.573229e+00
<STREAM> 4
<MEAN> 1
 1.535064e+00
<VARIANCE> 1
 8.903381e-01
<GCONST> 1.721723e+00
<STREAM> 5
<MEAN> 1
 2.693697e+00
<VARIANCE> 1
 2.430480e+00
<GCONST> 2.725966e+00
~s "dur_s2_281"
<STREAM> 1
<MEAN> 1
 5.054878e+00
<VARIANCE> 1
 3.336382e+00
<GCONST> 3.042764e+00
<STREAM> 2
<MEAN> 1
 4.457122e+00
<VARIANCE> 1
 2.332007e+00
<GCONST> 2.684606e+00
<STREAM> 3
<MEAN> 1
 1.352648e+01
<VARIANCE> 1
 3.528690e+01
<GCONST> 5.401389e+00
<STREAM> 4
<MEAN> 1
 7.320188e+00
<VARIANCE> 1
 2.364776e+01
<GCONST> 5.001145e+00
<STREAM> 5
<MEAN> 1
 6.993889e+00
<VARIANCE> 1
 7.447938e+00
<GCONST> 3.845814e+00
~s "dur_s2_316"
<STREAM> 1
<MEAN> 1
 5.789046e+00
<VARIANCE> 1
 1.433707e+01
<GCONST> 4.500726e+00
<STREAM> 2
<MEAN> 1
 6.223931e+00
<VARIANCE> 1
 2.042698e+01
<GCONST> 4.854733e+00
<STREAM> 3
<MEAN> 1
 3.009178e+00
<VARIANCE> 1
 2.938221e+00
<GCONST> 2.915681e+00
<STREAM> 4
<MEAN> 1
 2.605595e+00
<VARIANCE> 1
 3.299028e+00
<GCONST> 3.031505e+00
<STREAM> 5
<MEAN> 1
 2.061846e+00
<VARIANCE> 1
 1.497997e+00
<GCONST> 2.242006e+00
~s "dur_s2_387"
<STREAM> 1
<MEAN> 1
 1.000013e+00
<VARIANCE> 1
 7.805993e-02
<GCONST> -7.124014e-01
<STREAM> 2
<MEAN> 1
 3.175094e+00
<VARIANCE> 1
 2.294450e+00
<GCONST> 2.668370e+00
<STREAM> 3
<MEAN> 1
 1.249465e+00
<VARIANCE> 1
 7.674760e-01
<GCONST> 1.573229e+00
<STREAM> 4
<MEAN> 1
 1.461887e+00
<VARIANCE> 1
 8.903381e-01
<GCONST> 1.721723e+00
<STREAM> 5
<MEAN> 1
 1.257700e+00
<VARIANCE> 1
 3.592356e-01
<GCONST> 8.141003e-01
~s "dur_s2_423"
<STREAM> 1
<MEAN> 1
 3.393062e+00
<VARIANCE> 1
 1.494567e+00
<GCONST> 2.239714e+00
<STREAM> 2
<MEAN> 1
 3.698153e+00
<VARIANCE> 1
 5.942027e+00
<GCONST> 3.619927e+00
<STREAM> 3
<MEAN> 1
 1.883861e+00
<VARIANCE> 1
 8.566263e-01
<GCONST> 1.683124e+00
<STREAM> 4
<MEAN> 1
 3.260814e+00
<VARIANCE> 1
 1.569419e+00
<GCONST> 2.288583e+00
<STREAM> 5
<MEAN> 1
 3.067753e+00
<VARIANCE> 1
 2.500965e+00
<GCONST> 2.754554e+00
~s "dur_s2_487"
<STREAM> 1
<MEAN> 1
 2.532642e+00
<VARIANCE> 1
 4.226959e+00
<GCONST> 3.279360e+00
<STREAM> 2
<MEAN> 1
 1.644969e+00
<VARIANCE> 1
 6.559927e-01
<GCONST> 1.416271e+00
<STREAM> 3
<MEAN> 1
 1.340985e+00
<VARIANCE> 1
 7.674760e-01
<GCONST> 1.573229e+00
<STREAM> 4
<MEAN> 1
 1.564725e+00
<VARIANCE> 1
 8.903381e-01
<GCONST> 1.721723e+00
<STREAM> 5
<MEAN> 1
 1.228238e+00
<VARIANCE> 1
 2.314815e-01
<GCONST> 3.746215e-01
~s "dur_s2_523"
<STREAM> 1
<MEAN> 1
 9.227556e+00
<VARIANCE> 1
 3.546257e+01
<GCONST> 5.406355e+00
<STREAM> 2
<MEAN> 1
 9.172441e+00
<VARIANCE> 1
 6.373629e+01
<GCONST> 5.992631e+00
<STREAM> 3
<MEAN> 1
 4.895976e+00
<VARIANCE> 1
 4.145946e+01
<GCONST> 5.562593e+00
<STREAM> 4
<MEAN> 1
 2.330206e+01
<VARIANCE> 1
 4.184758e+02
<GCONST> 7.874496e+00
<STREAM> 5
<MEAN> 1
 2.000000e+00
<VARIANCE> 1
 9.033201e-02
<GCONST> -5.663865e-01
~s "dur_s2_565"
<STREAM> 1
<MEAN> 1
 3.984887e+00
<VARIANCE> 1
 3.151220e+00
<GCONST> 2.985667e+00
<STREAM> 2
<MEAN> 1
 6.481529e+00
<VARIANCE> 1
 2.209303e+01
<GCONST> 4.933139e+00
<STREAM> 3
<MEAN> 1
 3.922204e+00
<VARIANCE> 1
 8.752650e+00
<GCONST> 4.007234e+00
<STREAM> 4
<MEAN> 1
 3.906233e+00
<VARIANCE> 1
 1.823763e+00
<GCONST> 2.438779e+00
<STREAM> 5
<MEAN> 1
 3.808007e+00
<VARIANCE> 1
 1.379167e+00
<GCONST> 2.159357e+00
~s "dur_s2_634"
<STREAM> 1
<MEAN> 1
 2.787184e+00
<VARIANCE> 1
 3.784464e+00
<GCONST> 3.168781e+00
<STREAM> 2
<MEAN> 1
 1.620372e+00
<VARIANCE> 1
 7.983660e-01
<GCONST> 1.612689e+00
<STREAM> 3
<MEAN> 1
 1.824958e+00
<VARIANCE> 1
 1.214226e+00
<GCONST> 2.031984e+00
<STREAM> 4
<MEAN> 1
 1.754110e+00
<VARIANCE> 1
 9.515380e-01
<GCONST> 1.788201e+00
<STREAM> 5
<MEAN> 1
 2.825845e+00
<VARIANCE> 1
 4.234632e+00
<GCONST> 3.281173e+00
~s "dur_s2_646"
<STREAM> 1
<MEAN> 1
 1.463933e+00
<VARIANCE> 1
 7.840898e-01
<GCONST> 1.594645e+00
<STREAM> 2
<MEAN> 1
 1.039374e+00
<VARIANCE> 1
 1.600930e-01
<GCONST> 5.876780e-03
<STREAM> 3
<MEAN> 1
 1.251863e+00
<VARIANCE> 1
 7.674760e-01
<GCONST> 1.573229e+00
<STREAM> 4
<MEAN> 1
 1.524748e+00
<VARIANCE> 1
 8.903381e-01
<GCONST> 1.721723e+00
<STREAM> 5
<MEAN> 1
 1.183549e+00
<VARIANCE> 1
 1.660214e-01
<GCONST> 4.223835e-02
~s "dur_s2_660"
<STREAM> 1
<MEAN> 1
 6.288774e+00
<VARIANCE> 1
 6.578726e+00
<GCONST> 3.721718e+00
<STREAM> 2
<MEAN> 1
 1.600784e+00
<VARIANCE> 1
 1.827243e+00
<GCONST> 2.440685e+00
<STREAM> 3
<MEAN> 1
 3.458627e+00
<VARIANCE> 1
 9.795776e+00
<GCONST> 4.119828e+00
<STREAM> 4
<MEAN> 1
 1.449559e+00
<VARIANCE> 1
 8.903381e-01
<GCONST> 1.721723e+00
<STREAM> 5
<MEAN> 1
 2.690884e+00
<VARIANCE> 1
 3.013243e+00
<GCONST> 2.940894e+00
~s "dur_s2_743"
<STREAM> 1
<MEAN> 1
 4.989372e+00
<VARIANCE> 1
 1.350354e+01
<GCONST> 4.440829e+00
<STREAM> 2
<MEAN> 1
 4.965093e+00
<VARIANCE> 1
 1.916533e+01
<GCONST> 4.790980e+00
<STREAM> 3
<MEAN> 1
 1.784540e+00
<VARIANCE> 1
 9.667242e-01
<GCONST> 1.804035e+00
<STREAM> 4
<MEAN> 1
 1.467245e+00
<VARIANCE> 1
 1.070828e+00
<GCONST> 1.906309e+00
<STREAM> 5
<MEAN> 1
 1.227400e+00
<VARIANCE> 1
 2.240171e-01
<GCONST> 3.418442e-01
~s "dur_s2_772"
<STREAM> 1
<MEAN> 1
 2.225423e+00
<VARIANCE> 1
 2.469508e+00
<GCONST> 2.741896e+00
<STREAM> 2
<MEAN> 1
 2.017928e+00
<VARIANCE> 1
 1.058319e+00
<GCONST> 1.894559e+00
<STREAM> 3
<MEAN> 1
 2.051408e+00
<VARIANCE> 1
 7.674760e-01
<GCONST> 1.573229e+00
<STREAM> 4
<MEAN> 1
 2.477583e+00
<VARIANCE> 1
 1.018279e+00
<GCONST> 1.855991e+00
<STREAM> 5
<MEAN> 1
 2.277687e+00
<VARIANCE> 1
 1.269642e+00
<GCONST> 2.076612e+00
~s "dur_s2_1011"
<STREAM> 1
<MEAN> 1
 2.785122e+00
<VARIANCE> 1
 2.610166e+00
<GCONST> 2.797291e+00
<STREAM> 2
<MEAN> 1
 3.220625e+00
<VARIANCE> 1
 2.490252e+00
<GCONST> 2.750261e+00
<STREAM> 3
<MEAN> 1
 8.561543e+00
<VARIANCE> 1
 3.758708e+01
<GCONST> 5.464538e+00
<STREAM> 4
<MEAN> 1
 2.536384e+00
<VARIANCE> 1
 4.284529e+00
<GCONST> 3.292888e+00
<STREAM> 5
<MEAN> 1
 1.595681e+00
<VARIANCE> 1
 1.412267e+00
<GCONST> 2.183074e+00
~s "dur_s2_1014"
<STREAM> 1
<MEAN> 1
 6.437168e+00
<VARIANCE> 1
 6.594255e+00
<GCONST> 3.724076e+00
<STREAM> 2
<MEAN> 1
 1.106541e+00
<VARIANCE> 1
 1.600930e-01
<GCONST> 5.876780e-03
<STREAM> 3
<MEAN> 1
 4.727654e+00
<VARIANCE> 1
 4.176381e+00
<GCONST> 3.267322e+00
<STREAM> 4
<MEAN> 1
 1.078951e+00
<VARIANCE> 1
 8.903381e-01
<GCONST> 1.721723e+00
<STREAM> 5
<MEAN> 1
 6.250835e+00
<VARIANCE> 1
 7.862328e+00
<GCONST> 3.899960e+00
~s "dur_s2_1042"
<STREAM> 1
<MEAN> 1
 1.043884e+00
<VARIANCE> 1
 7.805993e-02
<GCONST> -7.124014e-01
<STREAM> 2
<MEAN> 1
 1.816496e+00
<VARIANCE> 1
 1.292036e+00
<GCONST> 2.094096e+00
<STREAM> 3
<MEAN> 1
 1.484748e+00
<VARIANCE> 1
 7.674760e-01
<GCONST> 1.573229e+00
<STREAM> 4
<MEAN> 1
 1.325011e+00
<VARIANCE> 1
 8.903381e-01
<GCONST> 1.721723e+00
<STREAM> 5
<MEAN> 1
 1.272578e+00
<VARIANCE> 1
 4.670907e-01
<GCONST> 1.076645e+00
~s "dur_s2_1061"
<STREAM> 1
<MEAN> 1
 1.030546e+01
<VARIANCE> 1
 2.825818e+01
<GCONST> 5.179260e+00
<STREAM> 2
<MEAN> 1
 1.712544e+00
<VARIANCE> 1
 1.152554e+00
<GCONST> 1.979857e+00
<STREAM> 3
<MEAN> 1
 1.624739e+00
<VARIANCE> 1
 1.301626e+00
<GCONST> 2.101491e+00
<STREAM> 4
<MEAN> 1
 3.518049e+00
<VARIANCE> 1
 3.889042e+00
<GCONST> 3.196040e+00
<STREAM> 5
<MEAN> 1
 3.294160e+00
<VARIANCE> 1
 1.496332e+00
<GCONST> 2.240894e+00
~s "dur_s2_1"
<STREAM> 1
<MEAN> 1
 1.767160e+00
<VARIANCE> 1
 2.697036e-01
<GCONST> 5.274453e-01
<STREAM> 2
<MEAN> 1
 1.715026e+00
<VARIANCE> 1
 2.598116e-01
<GCONST> 4.900783e-01
<STREAM> 3
<MEAN> 1
 1.866611e+00
<VARIANCE> 1
 7.674760e-01
<GCONST> 1.573229e+00
<STREAM> 4
<MEAN> 1
 2.145584e+00
<VARIANCE> 1
 2.537421e+00
<GCONST> 2.769025e+00
<STREAM> 5
<MEAN> 1
 1.295085e+00
<VARIANCE> 1
 3.989259e-01
<GCONST> 9.188974e-01
~s "dur_s2_5"
<STREAM> 1
<MEAN> 1
 4.572795e+00
<VARIANCE> 1
 4.377010e+00
<GCONST> 3.314243e+00
<STREAM> 2
<MEAN> 1
 5.415405e+00
<VARIANCE> 1
 1.235741e+01
<GCONST> 4.352133e+00
<STREAM> 3
<MEAN> 1
 1.876530e+00
<VARIANCE> 1
 8.286831e-01
<GCONST> 1.649960e+00
<STREAM> 4
<MEAN> 1
 1.703061e+00
<VARIANCE> 1
 9.511240e-01
<GCONST> 1.787766e+00
<STREAM> 5
<MEAN> 1
 1.704075e+00
<VARIANCE> 1
 1.757485e+00
<GCONST> 2.401761e+00
~s "dur_s2_21"
<STREAM> 1
<MEAN> 1
 1.261560e+01
<VARIANCE> 1
 5.377522e+01
<GCONST> 5.822690e+00
<STREAM> 2
<MEAN> 1
 6.976524e+00
<VARIANCE> 1
 4.791179e+01
<GCONST> 5.707239e+00
<STREAM> 3
<MEAN> 1
 2.621480e+00
<VARIANCE> 1
 1.925345e+00
<GCONST> 2.492982e+00
<STREAM> 4
<MEAN> 1
 1.412347e+00
<VARIANCE> 1
 8.903381e-01
<GCONST> 1.721723e+00
<STREAM> 5
<MEAN> 1
 1.341353e+00
<VARIANCE> 1
 4.813906e-01
<GCONST> 1.106801e+00
~s "dur_s2_40"
<STREAM> 1
<MEAN> 1
 1.795167e+00
<VARIANCE> 1
 1.641038e-01
<GCONST> 3.062069e-02
<STREAM> 2
<MEAN> 1
 1.791648e+00
<VARIANCE> 1
 1.001665e+00
<GCONST> 1.839541e+00
<STREAM> 3
<MEAN> 1
 3.111858e+01
<VARIANCE> 1
 8.204852e+02
<GCONST> 8.547773e+00
<STREAM> 4
<MEAN> 1
 5.985334e+00
<VARIANCE> 1
 4.388782e+01
<GCONST> 5.619514e+00
<STREAM> 5
<MEAN> 1
 4.860878e+00
<VARIANCE> 1
 2.644378e+01
<GCONST> 5.112898e+00
~s "dur_s2_68"
<STREAM> 1
<MEAN> 1
 2.705102e+00
<VARIANCE> 1
 1.918972e+00
<GCONST> 2.489666e+00
<STREAM> 2
<MEAN> 1
 1.069370e+01
<VARIANCE> 1
 4.176124e+01
<GCONST> 5.569846e+00
<STREAM> 3
<MEAN> 1
 1.667697e+00
<VARIANCE> 1
 9.699454e-01
<GCONST> 1.807361e+00
<STREAM> 4
<MEAN> 1
 1.464337e+00
<VARIANCE> 1
 8.903381e-01
<GCONST> 1.721723e+00
<STREAM> 5
<MEAN> 1
 1.240618e+00
<VARIANCE> 1
 2.552474e-01
<GCONST> 4.723551e-01
~h "D~@-s+t=r:1_6/A/0_0_2/B/1-1-6:1-1&8-1#5-1$2-1>2-0<5-0|E/C/0+0+0/D/pps_1/E/content+1:7+1&4+0#2+0/F/0_0/G/0_0/H/8=7:1=1&L-L%/I/0_0/J/8+7-1"
<BEGINHMM>
<NUMSTATES> 3
<STATE> 2
~s "dur_s2_206"
~t "TrP_1"
<ENDHMM>
~h "xx~#-h+E=lw:1_4/A/0_0_0/B/1-1-4:1-1&1-8#1-6$1-3>0-1<0-2|E/C/1+0+2/D/0_0/E/content+1:1+7&1+3#0+2/F/det_1/G/0_0/H/8=7:1=1&L-L%/I/0_0/J/8+7-1"
<BEGINHMM>
<NUMSTATES> 3
<STATE> 2
~s "dur_s2_743"
~t "TrP_2"
<ENDHMM>
~h "h~E-lw+p=D:3_2/A/0_0_0/B/1-1-4:1-1&1-8#1-6$1-3>0-1<0-2|E/C/1+0+2/D/0_0/E/content+1:1+7&1+3#0+2/F/det_1/G/0_0/H/8=7:1=1&L-L%/I/0_0/J/8+7-1"
<BEGINHMM>
<NUMSTATES> 3
<STATE> 2
~s "dur_s2_316"
~t "TrP_1"
<ENDHMM>
~h "k~t-u+p=r:2_1/A/1_1_3/B/1-0-2:1-1&4-5#3-3$2-2>1-2<1-4|u/C/0+0+3/D/content_1/E/to+1:4+4&3+2#1+1/F/content_2/G/0_0/H/8=7:1=1&L-L%/I/0_0/J/8+7-1"
<BEGINHMM>
<NUMSTATES> 3
<STATE> 2
~s "dur_s2_1"
~t "TrP_8"
<ENDHMM>
~h "D~@-w+i=k:1_3/A/1_0_2/B/1-1-3:1-1&3-6#2-4$1-2>1-1<2-5|i/C/1+0+2/D/det_1/E/content+1:3+5&2+2#2+2/F/to_1/G/0_0/H/8=7:1=1&L-L%/I/0_0/J/8+7-1"
<BEGINHMM>
<NUMSTATES> 3
<STATE> 2
~s "dur_s2_565"
~t "TrP_9"
<ENDHMM>
~h "E~lw-p+D=@:4_1/A/0_0_0/B/1-1-4:1-1&1-8#1-6$1-3>0-1<0-2|E/C/1+0+2/D/0_0/E/content+1:1+7&1+3#0+2/F/det_1/G/0_0/H/8=7:1=1&L-L%/I/0_0/J/8+7-1"
<BEGINHMM>
<NUMSTATES> 3
<STATE> 2
~s "dur_s2_5"
~t "TrP_10"
<ENDHMM>
~h "r~E-N+T=#:5_2/A/0_0_2/B/1-1-6:1-1&8-1#5-1$2-1>2-0<5-0|E/C/0+0+0/D/pps_1/E/content+1:7+1&4+0#2+0/F/0_0/G/0_0/H/8=7:1=1&L-L%/I/0_0/J/8+7-1"
<BEGINHMM>
<NUMSTATES> 3
<STATE> 2
~s "dur_s2_1011"
~t "TrP_9"
<ENDHMM>
~h "r~I-z+@@=v:1_3/A/0_0_3/B/1-0-3:2-1&6-3#4-2$2-2>2-2<3-2|@@/C/0+0+2/D/to_1/E/content+2:5+3&3+1#2+2/F/pps_1/G/0_0/H/8=7:1=1&L-L%/I/0_0/J/8+7-1"
<BEGINHMM>
<NUMSTATES> 3
<STATE> 2
~s "dur_s2_1014"
~t "TrP_9"
<ENDHMM>
~h "@~s-t+r=E:2_5/A/0_0_2/B/1-1-6:1-1&8-1#5-1$2-1>2-0<5-0|E/C/0+0+0/D/pps_1/E/content+1:7+1&4+0#2+0/F/0_0/G/0_0/H/8=7:1=1&L-L%/I/0_0/J/8+7-1"
<BEGINHMM>
<NUMSTATES> 3
<STATE> 2
~s "dur_s2_1061"
~t "TrP_4"
<ENDHMM>
~h "p~r-I+z=@@:3_1/A/1_0_2/B/0-0-3:1-2&5-4#4-3$2-2>1-1<2-3|I/C/1+0+3/D/to_1/E/content+2:5+3&3+1#2+2/F/pps_1/G/0_0/H/8=7:1=1&L-L%/I/0_0/J/8+7-1"
<BEGINHMM>
<NUMSTATES> 3
<STATE> 2
~s "dur_s2_646"
~t "TrP_4"
<ENDHMM>
~h "lw~p-D+@=w:1_2/A/1_1_4/B/1-0-2:1-1&2-7#1-5$1-3>1-1<1-1|@/C/1+1+3/D/content_1/E/det+1:2+6&2+3#1+1/F/content_1/G/0_0/H/8=7:1=1&L-L%/I/0_0/J/8+7-1"
<BEGINHMM>
<NUMSTATES> 3
<STATE> 2
~s "dur_s2_487"
~t "TrP_6"
<ENDHMM>
~h "E~N-T+#=xx:6_1/A/0_0_2/B/1-1-6:1-1&8-1#5-1$2-1>2-0<5-0|E/C/0+0+0/D/pps_1/E/content+1:7+1&4+0#2+0/F/0_0/G/0_0/H/8=7:1=1&L-L%/I/0_0/J/8+7-1"
<BEGINHMM>
<NUMSTATES> 3
<STATE> 2
~s "dur_s2_281"
~t "TrP_7"
<ENDHMM>
~h "t~r-E+N=T:4_3/A/0_0_2/B/1-1-6:1-1&8-1#5-1$2-1>2-0<5-0|E/C/0+0+0/D/pps_1/E/content+1:7+1&4+0#2+0/F/0_0/G/0_0/H/8=7:1=1&L-L%/I/0_0/J/8+7-1"
<BEGINHMM>
<NUMSTATES> 3
<STATE> 2
~s "dur_s2_660"
~t "TrP_6"
<ENDHMM>
~h "z~@@-v+D=@:3_1/A/0_0_3/B/1-0-3:2-1&6-3#4-2$2-2>2-2<3-2|@@/C/0+0+2/D/to_1/E/content+2:5+3&3+1#2+2/F/pps_1/G/0_0/H/8=7:1=1&L-L%/I/0_0/J/8+7-1"
<BEGINHMM>
<NUMSTATES> 3
<STATE> 2
~s "dur_s2_634"
~t "TrP_9"
<ENDHMM>
~h "@@~v-D+@=s:1_2/A/1_0_3/B/0-0-2:1-1&7-2#5-2$2-2>1-1<4-1|@/C/1+1+6/D/content_2/E/pps+1:6+2&4+1#1+1/F/content_1/G/0_0/H/8=7:1=1&L-L%/I/0_0/J/8+7-1"
<BEGINHMM>
<NUMSTATES> 3
<STATE> 2
~s "dur_s2_487"
~t "TrP_6"
<ENDHMM>
~h "@~w-i+k=t:2_2/A/1_0_2/B/1-1-3:1-1&3-6#2-4$1-2>1-1<2-5|i/C/1+0+2/D/det_1/E/content+1:3+5&2+2#2+2/F/to_1/G/0_0/H/8=7:1=1&L-L%/I/0_0/J/8+7-1"
<BEGINHMM>
<NUMSTATES> 3
<STATE> 2
~s "dur_s2_387"
~t "TrP_8"
<ENDHMM>
~h "u~p-r+I=z:2_2/A/1_0_2/B/0-0-3:1-2&5-4#4-3$2-2>1-1<2-3|I/C/1+0+3/D/to_1/E/content+2:5+3&3+1#2+2/F/pps_1/G/0_0/H/8=7:1=1&L-L%/I/0_0/J/8+7-1"
<BEGINHMM>
<NUMSTATES> 3
<STATE> 2
~s "dur_s2_226"
~t "TrP_2"
<ENDHMM>
~h "s~t-r+E=N:3_4/A/0_0_2/B/1-1-6:1-1&8-1#5-1$2-1>2-0<5-0|E/C/0+0+0/D/pps_1/E/content+1:7+1&4+0#2+0/F/0_0/G/0_0/H/8=7:1=1&L-L%/I/0_0/J/8+7-1"
<BEGINHMM>
<NUMSTATES> 3
<STATE> 2
~s "dur_s2_181"
~t "TrP_2"
<ENDHMM>
~h "I~z-@@+v=D:2_2/A/0_0_3/B/1-0-3:2-1&6-3#4-2$2-2>2-2<3-2|@@/C/0+0+2/D/to_1/E/content+2:5+3&3+1#2+2/F/pps_1/G/0_0/H/8=7:1=1&L-L%/I/0_0/J/8+7-1"
<BEGINHMM>
<NUMSTATES> 3
<STATE> 2
~s "dur_s2_21"
~t "TrP_3"
<ENDHMM>
~h "#~h-E+lw=p:2_3/A/0_0_0/B/1-1-4:1-1&1-8#1-6$1-3>0-1<0-2|E/C/1+0+2/D/0_0/E/content+1:1+7&1+3#0+2/F/det_1/G/0_0/H/8=7:1=1&L-L%/I/0_0/J/8+7-1"
<BEGINHMM>
<NUMSTATES> 3
<STATE> 2
~s "dur_s2_211"
~t "TrP_6"
<ENDHMM>
~h "v~D-@+s=t:2_1/A/1_0_3/B/0-0-2:1-1&7-2#5-2$2-2>1-1<4-1|@/C/1+1+6/D/content_2/E/pps+1:6+2&4+1#1+1/F/content_1/G/0_0/H/8=7:1=1&L-L%/I/0_0/J/8+7-1"
<BEGINHMM>
<NUMSTATES> 3
<STATE> 2
~s "dur_s2_68"
~t "TrP_2"
<ENDHMM>
~h "xx~xx-#+h=E:xx_xx/A/0_0_0/B/xx-xx-xx:xx-xx&xx-xx#xx-xx$xx-xx>xx-xx<xx-xx|xx/C/1+1+4/D/0_0/E/xx+xx:xx+xx&xx+xx#xx+xx/F/content_1/G/0_0/H/xx=xx:1=1&0/I/8_7/J/8+7-1"
<BEGINHMM>
<NUMSTATES> 3
<STATE> 2
~s "dur_s2_40"
~t "TrP_7"
<ENDHMM>
~h "w~i-k+t=u:3_1/A/1_0_2/B/1-1-3:1-1&3-6#2-4$1-2>1-1<2-5|i/C/1+0+2/D/det_1/E/content+1:3+5&2+2#2+2/F/to_1/G/0_0/H/8=7:1=1&L-L%/I/0_0/J/8+7-1"
<BEGINHMM>
<NUMSTATES> 3
<STATE> 2
~s "dur_s2_121"
~t "TrP_7"
<ENDHMM>
~h "N~T-#+xx=xx:xx_xx/A/1_1_6/B/xx-xx-xx:xx-xx&xx-xx#xx-xx$xx-xx>xx-xx<xx-xx|xx/C/0+0+0/D/content_1/E/xx+xx:xx+xx&xx+xx#xx+xx/F/0_0/G/8_7/H/xx=xx:1=1&0/I/0_0/J/8+7-1"
<BEGINHMM>
<NUMSTATES> 3
<STATE> 2
~s "dur_s2_523"
~t "TrP_7"
<ENDHMM>
~h "t~u-p+r=I:1_3/A/1_0_2/B/0-0-3:1-2&5-4#4-3$2-2>1-1<2-3|I/C/1+0+3/D/to_1/E/content+2:5+3&3+1#2+2/F/pps_1/G/0_0/H/8=7:1=1&L-L%/I/0_0/J/8+7-1"
<BEGINHMM>
<NUMSTATES> 3
<STATE> 2
~s "dur_s2_423"
~t "TrP_10"
<ENDHMM>
~h "p~D-@+w=i:2_1/A/1_1_4/B/1-0-2:1-1&2-7#1-5$1-3>1-1<1-1|@/C/1+1+3/D/content_1/E/det+1:2+6&2+3#1+1/F/content_1/G/0_0/H/8=7:1=1&L-L%/I/0_0/J/8+7-1"
<BEGINHMM>
<NUMSTATES> 3
<STATE> 2
~s "dur_s2_1042"
~t "TrP_2"
<ENDHMM>
~h "i~k-t+u=p:1_2/A/1_1_3/B/1-0-2:1-1&4-5#3-3$2-2>1-2<1-4|u/C/0+0+3/D/content_1/E/to+1:4+4&3+2#1+1/F/content_2/G/0_0/H/8=7:1=1&L-L%/I/0_0/J/8+7-1"
<BEGINHMM>
<NUMSTATES> 3
<STATE> 2
~s "dur_s2_772"
~t "TrP_4"
<ENDHMM>
