~o
<STREAMINFO> 5 1 1 1 1 1
<VECSIZE> 5<NULLD><USER><DIAGC>
~t "TrP_10"
<TRANSP> 3
 0.000000e+00 1.000000e+00 0.000000e+00
 0.000000e+00 0.000000e+00 1.000000e+00
 0.000000e+00 0.000000e+00 0.000000e+00
~t "TrP_1"
<TRANSP> 3
 0.000000e+00 1.000000e+00 0.000000e+00
 0.000000e+00 0.000000e+00 1.000000e+00
 0.000000e+00 0.000000e+00 0.000000e+00
~t "TrP_2"
<TRANSP> 3
 0.000000e+00 1.000000e+00 0.000000e+00
 0.000000e+00 0.000000e+00 1.000000e+00
 0.000000e+00 0.000000e+00 0.000000e+00
~t "TrP_3"
<TRANSP> 3
 0.000000e+00 1.000000e+00 0.000000e+00
 0.000000e+00 0.000000e+00 1.000000e+00
 0.000000e+00 0.000000e+00 0.000000e+00
~t "TrP_4"
<TRANSP> 3
 0.000000e+00 1.000000e+00 0.000000e+00
 0.000000e+00 0.000000e+00 1.000000e+00
 0.000000e+00 0.000000e+00 0.000000e+00
~t "TrP_6"
<TRANSP> 3
 0.000000e+00 1.000000e+00 0.000000e+00
 0.000000e+00 0.000000e+00 1.000000e+00
 0.000000e+00 0.000000e+00 0.000000e+00
~t "TrP_7"
<TRANSP> 3
 0.000000e+00 1.000000e+00 0.000000e+00
 0.000000e+00 0.000000e+00 1.000000e+00
 0.000000e+00 0.000000e+00 0.000000e+00
~t "TrP_8"
<TRANSP> 3
 0.000000e+00 1.000000e+00 0.000000e+00
 0.000000e+00 0.000000e+00 1.000000e+00
 0.000000e+00 0.000000e+00 0.000000e+00
~t "TrP_9"
<TRANSP> 3
 0.000000e+00 1.000000e+00 0.000000e+00
 0.000000e+00 0.000000e+00 1.000000e+00
 0.000000e+00 0.000000e+00 0.000000e+00
~v "varFloor1"
<VARIANCE> 1
 7.805993e-02
~v "varFloor2"
<VARIANCE> 1
 1.600930e-01
~v "varFloor3"
<VARIANCE> 1
 7.674760e-01
~v "varFloor4"
<VARIANCE> 1
 8.903381e-01
~v "varFloor5"
<VARIANCE> 1
 9.033201e-02
~s "dur_s2_101"
<STREAM> 1
<MEAN> 1
 4.922916e+00
<VARIANCE> 1
 1.093967e+01
<GCONST> 4.230273e+00
<STREAM> 2
<MEAN> 1
 2.459002e+00
<VARIANCE> 1
 1.367588e+00
<GCONST> 2.150925e+00
<STREAM> 3
<MEAN> 1
 1.976228e+00
<VARIANCE> 1
 1.902941e+00
<GCONST> 2.481278e+00
<STREAM> 4
<MEAN> 1
 2.333791e+00
<VARIANCE> 1
 3.098641e+00
<GCONST> 2.968841e+00
<STREAM> 5
<MEAN> 1
 4.236227e+00
<VARIANCE> 1
 1.444334e+01
<GCONST> 4.508110e+00
~s "dur_s2_128"
<STREAM> 1
<MEAN> 1
 1.333810e+00
<VARIANCE> 1
 3.869942e-01
<GCONST> 8.885316e-01
<STREAM> 2
<MEAN> 1
 1.212044e+00
<VARIANCE> 1
 1.673991e-01
<GCONST> 5.050242e-02
<STREAM> 3
<MEAN> 1
 1.878842e+00
<VARIANCE> 1
 1.752648e+00
<GCONST> 2.399005e+00
<STREAM> 4
<MEAN> 1
 1.413350e+00
<VARIANCE> 1
 8.903381e-01
<GCONST> 1.721723e+00
<STREAM> 5
<MEAN> 1
 2.105352e+00
<VARIANCE> 1
 1.648683e+00
<GCONST> 2.337854e+00
~s "dur_s2_153"
<STREAM> 1
<MEAN> 1
 1.176322e+00
<VARIANCE> 1
 1.452328e-01
<GCONST> -9.154046e-02
<STREAM> 2
<MEAN> 1
 1.000896e+00
<VARIANCE> 1
 1.600930e-01
<GCONST> 5.876780e-03
<STREAM> 3
<MEAN> 1
 1.500813e+00
<VARIANCE> 1
 7.674760e-01
<GCONST> 1.573229e+00
<STREAM> 4
<MEAN> 1
 1.125772e+00
<VARIANCE> 1
 8.903381e-01
<GCONST> 1.721723e+00
<STREAM> 5
<MEAN> 1
 1.062503e+00
<VARIANCE> 1
 9.033201e-02
<GCONST> -5.663865e-01
~s "dur_s2_181"
<STREAM> 1
<MEAN> 1
 2.479041e+00
<VARIANCE> 1
 4.474890e-01
<GCONST> 1.033774e+00
<STREAM> 2
<MEAN> 1
 2.098610e+00
<VARIANCE> 1
 3.384337e-01
<GCONST> 7.544498e-01
<STREAM> 3
<MEAN> 1
 2.154096e+00
<VARIANCE> 1
 1.519451e+00
<GCONST> 2.256226e+00
<STREAM> 4
<MEAN> 1
 2.819520e+00
<VARIANCE> 1
 3.825631e+00
<GCONST> 3.179600e+00
<STREAM> 5
<MEAN> 1
 4.360366e+00
<VARIANCE> 1
 6.347734e+00
<GCONST> 3.685975e+00
~s "dur_s2_211"
<STREAM> 1
<MEAN> 1
 2.926207e+00
<VARIANCE> 1
 1.092289e+00
<GCONST> 1.926153e+00
<STREAM> 2
<MEAN> 1
 4.971274e+00
<VARIANCE> 1
 8.556396e+00
<GCONST> 3.984556e+00
<STREAM> 3
<MEAN> 1
 2.632475e+00
<VARIANCE> 1
 3.909767e+00
<GCONST> 3.201355e+00
<STREAM> 4
<MEAN> 1
 1.791495e+00
<VARIANCE> 1
 8.903381e-01
<GCONST> 1.721723e+00
<STREAM> 5
<MEAN> 1
 1.817791e+00
<VARIANCE> 1
 1.129740e+00
<GCONST> 1.959865e+00
~s "dur_s2_274"
<STREAM> 1
<MEAN> 1
 3.024608e+00
<VARIANCE> 1
 1.218420e+00
<GCONST> 2.035432e+00
<STREAM> 2
<MEAN> 1
 3.106300e+00
<VARIANCE> 1
 9.177192e-01
<GCONST> 1.752013e+00
<STREAM> 3
<MEAN> 1
 1.022104e+01
<VARIANCE> 1
 1.256128e+01
<GCONST> 4.368496e+00
<STREAM> 4
<MEAN> 1
 4.559072e+00
<VARIANCE> 1
 3.468925e+00
<GCONST> 3.081722e+00
<STREAM> 5
<MEAN> 1
 2.376314e+00
<VARIANCE> 1
 5.878363e-01
<GCONST> 1.306570e+00
~s "dur_s2_285"
<STREAM> 1
<MEAN> 1
 3.442573e+00
<VARIANCE> 1
 6.721861e+00
<GCONST> 3.743242e+00
<STREAM> 2
<MEAN> 1
 2.037024e+00
<VARIANCE> 1
 7.998401e-01
<GCONST> 1.614534e+00
<STREAM> 3
<MEAN> 1
 3.845412e+00
<VARIANCE> 1
 9.406940e+00
<GCONST> 4.079325e+00
<STREAM> 4
<MEAN> 1
 2.360166e+00
<VARIANCE> 1
 1.181928e+00
<GCONST> 2.005024e+00
<STREAM> 5
<MEAN> 1
 2.722100e+00
<VARIANCE> 1
 1.485363e+00
<GCONST> 2.233536e+00
~s "dur_s2_300"
<STREAM> 1
<MEAN> 1
 2.968288e+00
<VARIANCE> 1
 1.132519e+00
<GCONST> 1.962321e+00
<STREAM> 2
<MEAN> 1
 5.771440e+00
<VARIANCE> 1
 2.260857e+01
<GCONST> 4.956206e+00
<STREAM> 3
<MEAN> 1
 1.765140e+00
<VARIANCE> 1
 1.471856e+00
<GCONST> 2.224401e+00
<STREAM> 4
<MEAN> 1
 1.442377e+00
<VARIANCE> 1
 8.903381e-01
<GCONST> 1.721723e+00
<STREAM> 5
<MEAN> 1
 1.709583e+00
<VARIANCE> 1
 1.256900e+00
<GCONST> 2.066525e+00
~s "dur_s2_305"
<STREAM> 1
<MEAN> 1
 3.164861e+00
<VARIANCE> 1
 2.215508e+00
<GCONST> 2.633358e+00
<STREAM> 2
<MEAN> 1
 3.377453e+00
<VARIANCE> 1
 3.452351e+00
<GCONST> 3.076932e+00
<STREAM> 3
<MEAN> 1
 1.861921e+00
<VARIANCE> 1
 9.351134e-01
<GCONST> 1.770790e+00
<STREAM> 4
<MEAN> 1
 1.001587e+00
<VARIANCE> 1
 8.903381e-01
<GCONST> 1.721723e+00
<STREAM> 5
<MEAN> 1
 1.000001e+00
<VARIANCE> 1
 9.033201e-02
<GCONST> -5.663865e-01
~s "dur_s2_362"
<STREAM> 1
<MEAN> 1
 3.860007e+00
<VARIANCE> 1
 9.888287e-01
<GCONST> 1.826643e+00
<STREAM> 2
<MEAN> 1
 1.447636e+00
<VARIANCE> 1
 5.829204e-01
<GCONST> 1.298172e+00
<STREAM> 3
<MEAN> 1
 3.166886e+00
<VARIANCE> 1
 4.270053e+00
<GCONST> 3.289503e+00
<STREAM> 4
<MEAN> 1
 1.362031e+00
<VARIANCE> 1
 8.903381e-01
<GCONST> 1.721723e+00
<STREAM> 5
<MEAN> 1
 1.517800e+00
<VARIANCE> 1
 5.260242e-01
<GCONST> 1.195469e+00
~s "dur_s2_399"
<STREAM> 1
<MEAN> 1
 2.954324e+00
<VARIANCE> 1
 7.815363e-01
<GCONST> 1.591383e+00
<STREAM> 2
<MEAN> 1
 6.390244e+00
<VARIANCE> 1
 8.592388e+00
<GCONST> 3.988754e+00
<STREAM> 3
<MEAN> 1
 5.315132e+00
<VARIANCE> 1
 1.782021e+00
<GCONST> 2.415625e+00
<STREAM> 4
<MEAN> 1
 4.559925e+00
<VARIANCE> 1
 6.378103e+00
<GCONST> 3.690748e+00
<STREAM> 5
<MEAN> 1
 3.705586e+00
<VARIANCE> 1
 4.487826e+00
<GCONST> 3.339245e+00
~s "dur_s2_554"
<STREAM> 1
<MEAN> 1
 3.264668e+00
<VARIANCE> 1
 3.308578e+00
<GCONST> 3.034396e+00
<STREAM> 2
<MEAN> 1
 2.576477e+00
<VARIANCE> 1
 2.381696e+00
<GCONST> 2.705690e+00
<STREAM> 3
<MEAN> 1
 2.249394e+00
<VARIANCE> 1
 8.058423e-01
<GCONST> 1.622010e+00
<STREAM> 4
<MEAN> 1
 2.312490e+00
<VARIANCE> 1
 8.903381e-01
<GCONST> 1.721723e+00
<STREAM> 5
<MEAN> 1
 2.660376e+00
<VARIANCE> 1
 5.685475e-01
<GCONST> 1.273207e+00
~s "dur_s2_604"
<STREAM> 1
<MEAN> 1
 7.436942e+00
<VARIANCE> 1
 2.466829e+01
<GCONST> 5.043396e+00
<STREAM> 2
<MEAN> 1
 7.909945e+00
<VARIANCE> 1
 3.776914e+01
<GCONST> 5.469369e+00
<STREAM> 3
<MEAN> 1
 5.120424e+00
<VARIANCE> 1
 4.624720e+01
<GCONST> 5.671878e+00
<STREAM> 4
<MEAN> 1
 3.848504e+01
<VARIANCE> 1
 5.224800e+02
<GCONST> 8.096464e+00
<STREAM> 5
<MEAN> 1
 1.961983e+00
<VARIANCE> 1
 9.033201e-02
<GCONST> -5.663865e-01
~s "dur_s2_607"
<STREAM> 1
<MEAN> 1
 1.827247e+00
<VARIANCE> 1
 1.429093e-01
<GCONST> -1.076683e-01
<STREAM> 2
<MEAN> 1
 1.664441e+00
<VARIANCE> 1
 8.280295e-01
<GCONST> 1.649171e+00
<STREAM> 3
<MEAN> 1
 3.169824e+01
<VARIANCE> 1
 1.016224e+03
<GCONST> 8.761725e+00
<STREAM> 4
<MEAN> 1
 9.411363e+00
<VARIANCE> 1
 7.926750e+01
<GCONST> 6.210705e+00
<STREAM> 5
<MEAN> 1
 8.035424e+00
<VARIANCE> 1
 3.224062e+01
<GCONST> 5.311104e+00
~s "dur_s2_648"
<STREAM> 1
<MEAN> 1
 1.206174e+00
<VARIANCE> 1
 1.636668e-01
<GCONST> 2.795458e-02
<STREAM> 2
<MEAN> 1
 1.067327e+00
<VARIANCE> 1
 1.600930e-01
<GCONST> 5.876780e-03
<STREAM> 3
<MEAN> 1
 2.052515e+00
<VARIANCE> 1
 1.798772e+00
<GCONST> 2.424981e+00
<STREAM> 4
<MEAN> 1
 1.829746e+01
<VARIANCE> 1
 6.299603e+00
<GCONST> 3.678364e+00
<STREAM> 5
<MEAN> 1
 7.410260e+00
<VARIANCE> 1
 4.717121e+00
<GCONST> 3.389076e+00
~s "dur_s2_660"
<STREAM> 1
<MEAN> 1
 6.288774e+00
<VARIANCE> 1
 6.578726e+00
<GCONST> 3.721718e+00
<STREAM> 2
<MEAN> 1
 1.600784e+00
<VARIANCE> 1
 1.827243e+00
<GCONST> 2.440685e+00
<STREAM> 3
<MEAN> 1
 3.458627e+00
<VARIANCE> 1
 9.795776e+00
<GCONST> 4.119828e+00
<STREAM> 4
<MEAN> 1
 1.449559e+00
<VARIANCE> 1
 8.903381e-01
<GCONST> 1.721723e+00
<STREAM> 5
<MEAN> 1
 2.690884e+00
<VARIANCE> 1
 3.013243e+00
<GCONST> 2.940894e+00
~s "dur_s2_780"
<STREAM> 1
<MEAN> 1
 2.977695e+00
<VARIANCE> 1
 9.839498e-01
<GCONST> 1.821697e+00
<STREAM> 2
<MEAN> 1
 6.047715e+00
<VARIANCE> 1
 7.168542e+00
<GCONST> 3.807580e+00
<STREAM> 3
<MEAN> 1
 2.412816e+00
<VARIANCE> 1
 1.823756e+00
<GCONST> 2.438775e+00
<STREAM> 4
<MEAN> 1
 1.577592e+00
<VARIANCE> 1
 8.903381e-01
<GCONST> 1.721723e+00
<STREAM> 5
<MEAN> 1
 1.591695e+00
<VARIANCE> 1
 7.074214e-01
<GCONST> 1.491748e+00
~s "dur_s2_787"
<STREAM> 1
<MEAN> 1
 2.540735e+00
<VARIANCE> 1
 1.511380e+00
<GCONST> 2.250900e+00
<STREAM> 2
<MEAN> 1
 2.725008e+00
<VARIANCE> 1
 1.796752e+00
<GCONST> 2.423858e+00
<STREAM> 3
<MEAN> 1
 5.226662e+00
<VARIANCE> 1
 8.180687e+00
<GCONST> 3.939653e+00
<STREAM> 4
<MEAN> 1
 9.232565e+00
<VARIANCE> 1
 2.145110e+01
<GCONST> 4.903653e+00
<STREAM> 5
<MEAN> 1
 3.341318e+00
<VARIANCE> 1
 7.380201e-01
<GCONST> 1.534093e+00
~s "dur_s2_816"
<STREAM> 1
<MEAN> 1
 2.831611e+00
<VARIANCE> 1
 4.758550e+00
<GCONST> 3.397820e+00
<STREAM> 2
<MEAN> 1
 1.470781e+00
<VARIANCE> 1
 5.346306e-01
<GCONST> 1.211698e+00
<STREAM> 3
<MEAN> 1
 1.914176e+00
<VARIANCE> 1
 2.201435e+00
<GCONST> 2.626987e+00
<STREAM> 4
<MEAN> 1
 1.664721e+00
<VARIANCE> 1
 1.425731e+00
<GCONST> 2.192562e+00
<STREAM> 5
<MEAN> 1
 1.536395e+00
<VARIANCE> 1
 1.139629e+00
<GCONST> 1.968580e+00
~s "dur_s2_837"
<STREAM> 1
<MEAN> 1
 1.920938e+00
<VARIANCE> 1
 1.214739e+00
<GCONST> 2.032406e+00
<STREAM> 2
<MEAN> 1
 3.036846e+00
<VARIANCE> 1
 8.971218e+00
<GCONST> 4.031898e+00
<STREAM> 3
<MEAN> 1
 1.394982e+00
<VARIANCE> 1
 7.674760e-01
<GCONST> 1.573229e+00
<STREAM> 4
<MEAN> 1
 1.544722e+00
<VARIANCE> 1
 9.550264e-01
<GCONST> 1.791861e+00
<STREAM> 5
<MEAN> 1
 1.334288e+00
<VARIANCE> 1
 7.151485e-01
<GCONST> 1.502612e+00
~s "dur_s2_896"
<STREAM> 1
<MEAN> 1
 2.127009e+00
<VARIANCE> 1
 1.809161e+00
<GCONST> 2.430740e+00
<STREAM> 2
<MEAN> 1
 1.557767e+00
<VARIANCE> 1
 1.178181e+00
<GCONST> 2.001849e+00
<STREAM> 3
<MEAN> 1
 4.886977e+00
<VARIANCE> 1
 1.284746e+01
<GCONST> 4.391023e+00
<STREAM> 4
<MEAN> 1
 2.670563e+00
<VARIANCE> 1
 3.224226e+00
<GCONST> 3.008570e+00
<STREAM> 5
<MEAN> 1
 2.921333e+00
<VARIANCE> 1
 4.035267e+00
<GCONST> 3.232950e+00
~s "dur_s2_1019"
<STREAM> 1
<MEAN> 1
 6.295873e+00
<VARIANCE> 1
 2.825258e+01
<GCONST> 5.179062e+00
<STREAM> 2
<MEAN> 1
 5.250644e+00
<VARIANCE> 1
 2.437477e+01
<GCONST> 5.031425e+00
<STREAM> 3
<MEAN> 1
 1.838793e+00
<VARIANCE> 1
 2.112586e+00
<GCONST> 2.585790e+00
<STREAM> 4
<MEAN> 1
 1.289208e+00
<VARIANCE> 1
 8.903381e-01
<GCONST> 1.721723e+00
<STREAM> 5
<MEAN> 1
 2.367531e+00
<VARIANCE> 1
 3.990347e+00
<GCONST> 3.221756e+00
~s "dur_s2_1111"
<STREAM> 1
<MEAN> 1
 8.265703e+00
<VARIANCE> 1
 4.343692e+01
<GCONST> 5.609187e+00
<STREAM> 2
<MEAN> 1
 6.615200e+00
<VARIANCE> 1
 2.260233e+01
<GCONST> 4.955930e+00
<STREAM> 3
<MEAN> 1
 3.090669e+00
<VARIANCE> 1
 3.203534e+00
<GCONST> 3.002132e+00
<STREAM> 4
<MEAN> 1
 2.659254e+00
<VARIANCE> 1
 5.050844e+00
<GCONST> 3.457432e+00
<STREAM> 5
<MEAN> 1
 2.141361e+00
<VARIANCE> 1
 2.116019e+00
<GCONST> 2.587413e+00
~s "dur_s2_8"
<STREAM> 1
<MEAN> 1
 7.927960e+00
<VARIANCE> 1
 1.279712e+01
<GCONST> 4.387097e+00
<STREAM> 2
<MEAN> 1
 2.210206e+00
<VARIANCE> 1
 2.949018e+00
<GCONST> 2.919349e+00
<STREAM> 3
<MEAN> 1
 1.783245e+00
<VARIANCE> 1
 1.801312e+00
<GCONST> 2.426392e+00
<STREAM> 4
<MEAN> 1
 4.966850e+00
<VARIANCE> 1
 1.635585e+01
<GCONST> 4.632463e+00
<STREAM> 5
<MEAN> 1
 2.689788e+00
<VARIANCE> 1
 6.599243e-01
<GCONST> 1.422247e+00
~s "dur_s2_99"
<STREAM> 1
<MEAN> 1
 3.960670e+00
<VARIANCE> 1
 2.533265e+00
<GCONST> 2.767386e+00
<STREAM> 2
<MEAN> 1
 5.216858e+00
<VARIANCE> 1
 4.561156e+00
<GCONST> 3.355453e+00
<STREAM> 3
<MEAN> 1
 7.612094e+00
<VARIANCE> 1
 2.095578e+01
<GCONST> 4.880292e+00
<STREAM> 4
<MEAN> 1
 4.907497e+00
<VARIANCE> 1
 7.230725e+00
<GCONST> 3.816216e+00
<STREAM> 5
<MEAN> 1
 2.929703e+00
<VARIANCE> 1
 1.336923e+00
<GCONST> 2.128248e+00
~h "g~E-t+s=f:3_2/A/1_0_4/B/1-0-4:1-1&5-3#3-3$2-2>1-1<3-2|E/C/1+0+3/D/content_1/E/content+1:4+3&3+2#1+1/F/content_1/G/0_0/H/7=6:1=1&L-L%/I/0_0/J/7+6-1"
<BEGINHMM>
<NUMSTATES> 3
<STATE> 2
~s "dur_s2_305"
~t "TrP_4"
<ENDHMM>
~h "@~n-s+m=aI:1_4/A/0_0_3/B/1-0-4:1-1&4-4#2-4$2-2>2-1<2-3|aI/C/1+0+4/D/content_2/E/content+1:3+4&2+3#1+1/F/content_1/G/0_0/H/7=6:1=1&L-L%/I/0_0/J/7+6-1"
<BEGINHMM>
<NUMSTATES> 3
<STATE> 2
~s "dur_s2_99"
~t "TrP_1"
<ENDHMM>
~h "E~t-s+f=j:4_1/A/1_0_4/B/1-0-4:1-1&5-3#3-3$2-2>1-1<3-2|E/C/1+0+3/D/content_1/E/content+1:4+3&3+2#1+1/F/content_1/G/0_0/H/7=6:1=1&L-L%/I/0_0/J/7+6-1"
<BEGINHMM>
<NUMSTATES> 3
<STATE> 2
~s "dur_s2_896"
~t "TrP_1"
<ENDHMM>
~h "n~s-m+aI=lw:2_3/A/0_0_3/B/1-0-4:1-1&4-4#2-4$2-2>2-1<2-3|aI/C/1+0+4/D/content_2/E/content+1:3+4&2+3#1+1/F/content_1/G/0_0/H/7=6:1=1&L-L%/I/0_0/J/7+6-1"
<BEGINHMM>
<NUMSTATES> 3
<STATE> 2
~s "dur_s2_285"
~t "TrP_10"
<ENDHMM>
~h "s~m-aI+lw=g:3_2/A/0_0_3/B/1-0-4:1-1&4-4#2-4$2-2>2-1<2-3|aI/C/1+0+4/D/content_2/E/content+1:3+4&2+3#1+1/F/content_1/G/0_0/H/7=6:1=1&L-L%/I/0_0/J/7+6-1"
<BEGINHMM>
<NUMSTATES> 3
<STATE> 2
~s "dur_s2_399"
~t "TrP_4"
<ENDHMM>
~h "xx~xx-#+eI=s:xx_xx/A/0_0_0/B/xx-xx-xx:xx-xx&xx-xx#xx-xx$xx-xx>xx-xx<xx-xx|xx/C/1+0+1/D/0_0/E/xx+xx:xx+xx&xx+xx#xx+xx/F/det_1/G/0_0/H/xx=xx:1=1&0/I/7_6/J/7+6-1"
<BEGINHMM>
<NUMSTATES> 3
<STATE> 2
~s "dur_s2_607"
~t "TrP_7"
<ENDHMM>
~h "eI~s-V+l=@:2_1/A/1_0_1/B/1-1-2:1-2&2-6#1-5$1-2>1-2<0-5|V/C/0+0+3/D/det_1/E/content+2:2+5&1+4#0+1/F/content_1/G/0_0/H/7=6:1=1&L-L%/I/0_0/J/7+6-1"
<BEGINHMM>
<NUMSTATES> 3
<STATE> 2
~s "dur_s2_780"
~t "TrP_8"
<ENDHMM>
~h "aI~lw-g+E=t:1_4/A/1_0_4/B/1-0-4:1-1&5-3#3-3$2-2>1-1<3-2|E/C/1+0+3/D/content_1/E/content+1:4+3&3+2#1+1/F/content_1/G/0_0/H/7=6:1=1&L-L%/I/0_0/J/7+6-1"
<BEGINHMM>
<NUMSTATES> 3
<STATE> 2
~s "dur_s2_554"
~t "TrP_8"
<ENDHMM>
~h "m~aI-lw+g=E:4_1/A/0_0_3/B/1-0-4:1-1&4-4#2-4$2-2>2-1<2-3|aI/C/1+0+4/D/content_2/E/content+1:3+4&2+3#1+1/F/content_1/G/0_0/H/7=6:1=1&L-L%/I/0_0/J/7+6-1"
<BEGINHMM>
<NUMSTATES> 3
<STATE> 2
~s "dur_s2_1111"
~t "TrP_1"
<ENDHMM>
~h "n~d-z+#=xx:6_1/A/1_0_3/B/1-1-6:1-1&7-1#5-1$2-1>1-0<5-0|E/C/0+0+0/D/content_1/E/content+1:6+1&5+0#1+0/F/0_0/G/0_0/H/7=6:1=1&L-L%/I/0_0/J/7+6-1"
<BEGINHMM>
<NUMSTATES> 3
<STATE> 2
~s "dur_s2_648"
~t "TrP_9"
<ENDHMM>
~h "d~z-#+xx=xx:xx_xx/A/1_1_6/B/xx-xx-xx:xx-xx&xx-xx#xx-xx$xx-xx>xx-xx<xx-xx|xx/C/0+0+0/D/content_1/E/xx+xx:xx+xx&xx+xx#xx+xx/F/0_0/G/7_6/H/xx=xx:1=1&0/I/0_0/J/7+6-1"
<BEGINHMM>
<NUMSTATES> 3
<STATE> 2
~s "dur_s2_604"
~t "TrP_8"
<ENDHMM>
~h "s~f-j+u=f:2_2/A/1_0_4/B/1-0-3:1-1&6-2#4-2$2-2>1-1<4-1|u/C/1+1+6/D/content_1/E/content+1:5+2&4+1#1+1/F/content_1/G/0_0/H/7=6:1=1&L-L%/I/0_0/J/7+6-1"
<BEGINHMM>
<NUMSTATES> 3
<STATE> 2
~s "dur_s2_101"
~t "TrP_9"
<ENDHMM>
~h "r~E-n+d=z:4_3/A/1_0_3/B/1-1-6:1-1&7-1#5-1$2-1>1-0<5-0|E/C/0+0+0/D/content_1/E/content+1:6+1&5+0#1+0/F/0_0/G/0_0/H/7=6:1=1&L-L%/I/0_0/J/7+6-1"
<BEGINHMM>
<NUMSTATES> 3
<STATE> 2
~s "dur_s2_1019"
~t "TrP_8"
<ENDHMM>
~h "xx~#-eI+s=V:1_1/A/0_0_0/B/1-0-1:1-1&1-7#1-6$1-3>0-1<0-1|eI/C/1+1+2/D/0_0/E/det+1:1+6&1+5#0+1/F/content_2/G/0_0/H/7=6:1=1&L-L%/I/0_0/J/7+6-1"
<BEGINHMM>
<NUMSTATES> 3
<STATE> 2
~s "dur_s2_362"
~t "TrP_3"
<ENDHMM>
~h "f~r-E+n=d:3_4/A/1_0_3/B/1-1-6:1-1&7-1#5-1$2-1>1-0<5-0|E/C/0+0+0/D/content_1/E/content+1:6+1&5+0#1+0/F/0_0/G/0_0/H/7=6:1=1&L-L%/I/0_0/J/7+6-1"
<BEGINHMM>
<NUMSTATES> 3
<STATE> 2
~s "dur_s2_660"
~t "TrP_6"
<ENDHMM>
~h "u~f-r+E=n:2_5/A/1_0_3/B/1-1-6:1-1&7-1#5-1$2-1>1-0<5-0|E/C/0+0+0/D/content_1/E/content+1:6+1&5+0#1+0/F/0_0/G/0_0/H/7=6:1=1&L-L%/I/0_0/J/7+6-1"
<BEGINHMM>
<NUMSTATES> 3
<STATE> 2
~s "dur_s2_181"
~t "TrP_2"
<ENDHMM>
~h "j~u-f+r=E:1_6/A/1_0_3/B/1-1-6:1-1&7-1#5-1$2-1>1-0<5-0|E/C/0+0+0/D/content_1/E/content+1:6+1&5+0#1+0/F/0_0/G/0_0/H/7=6:1=1&L-L%/I/0_0/J/7+6-1"
<BEGINHMM>
<NUMSTATES> 3
<STATE> 2
~s "dur_s2_787"
~t "TrP_3"
<ENDHMM>
~h "V~l-@+n=s:2_2/A/1_1_2/B/0-0-3:2-1&3-5#2-5$2-2>1-1<1-4|@/C/1+0+4/D/det_1/E/content+2:2+5&1+4#0+1/F/content_1/G/0_0/H/7=6:1=1&L-L%/I/0_0/J/7+6-1"
<BEGINHMM>
<NUMSTATES> 3
<STATE> 2
~s "dur_s2_837"
~t "TrP_2"
<ENDHMM>
~h "#~eI-s+V=l:1_2/A/1_0_1/B/1-1-2:1-2&2-6#1-5$1-2>1-2<0-5|V/C/0+0+3/D/det_1/E/content+2:2+5&1+4#0+1/F/content_1/G/0_0/H/7=6:1=1&L-L%/I/0_0/J/7+6-1"
<BEGINHMM>
<NUMSTATES> 3
<STATE> 2
~s "dur_s2_274"
~t "TrP_1"
<ENDHMM>
~h "lw~g-E+t=s:2_3/A/1_0_4/B/1-0-4:1-1&5-3#3-3$2-2>1-1<3-2|E/C/1+0+3/D/content_1/E/content+1:4+3&3+2#1+1/F/content_1/G/0_0/H/7=6:1=1&L-L%/I/0_0/J/7+6-1"
<BEGINHMM>
<NUMSTATES> 3
<STATE> 2
~s "dur_s2_211"
~t "TrP_6"
<ENDHMM>
~h "E~n-d+z=#:5_2/A/1_0_3/B/1-1-6:1-1&7-1#5-1$2-1>1-0<5-0|E/C/0+0+0/D/content_1/E/content+1:6+1&5+0#1+0/F/0_0/G/0_0/H/7=6:1=1&L-L%/I/0_0/J/7+6-1"
<BEGINHMM>
<NUMSTATES> 3
<STATE> 2
~s "dur_s2_153"
~t "TrP_3"
<ENDHMM>
~h "f~j-u+f=r:3_1/A/1_0_4/B/1-0-3:1-1&6-2#4-2$2-2>1-1<4-1|u/C/1+1+6/D/content_1/E/content+1:5+2&4+1#1+1/F/content_1/G/0_0/H/7=6:1=1&L-L%/I/0_0/J/7+6-1"
<BEGINHMM>
<NUMSTATES> 3
<STATE> 2
~s "dur_s2_816"
~t "TrP_8"
<ENDHMM>
~h "t~s-f+j=u:1_3/A/1_0_4/B/1-0-3:1-1&6-2#4-2$2-2>1-1<4-1|u/C/1+1+6/D/content_1/E/content+1:5+2&4+1#1+1/F/content_1/G/0_0/H/7=6:1=1&L-L%/I/0_0/J/7+6-1"
<BEGINHMM>
<NUMSTATES> 3
<STATE> 2
~s "dur_s2_8"
~t "TrP_3"
<ENDHMM>
~h "l~@-n+s=m:3_1/A/1_1_2/B/0-0-3:2-1&3-5#2-5$2-2>1-1<1-4|@/C/1+0+4/D/det_1/E/content+2:2+5&1+4#0+1/F/content_1/G/0_0/H/7=6:1=1&L-L%/I/0_0/J/7+6-1"
<BEGINHMM>
<NUMSTATES> 3
<STATE> 2
~s "dur_s2_300"
~t "TrP_8"
<ENDHMM>
~h "s~V-l+@=n:1_3/A/1_1_2/B/0-0-3:2-1&3-5#2-5$2-2>1-1<1-4|@/C/1+0+4/D/det_1/E/content+2:2+5&1+4#0+1/F/content_1/G/0_0/H/7=6:1=1&L-L%/I/0_0/J/7+6-1"
<BEGINHMM>
<NUMSTATES> 3
<STATE> 2
~s "dur_s2_128"
~t "TrP_7"
<ENDHMM>
