~o
<STREAMINFO> 5 1 1 1 1 1
<VECSIZE> 5<NULLD><USER><DIAGC>
~t "TrP_10"
<TRANSP> 3
 0.000000e+00 1.000000e+00 0.000000e+00
 0.000000e+00 0.000000e+00 1.000000e+00
 0.000000e+00 0.000000e+00 0.000000e+00
~t "TrP_1"
<TRANSP> 3
 0.000000e+00 1.000000e+00 0.000000e+00
 0.000000e+00 0.000000e+00 1.000000e+00
 0.000000e+00 0.000000e+00 0.000000e+00
~t "TrP_2"
<TRANSP> 3
 0.000000e+00 1.000000e+00 0.000000e+00
 0.000000e+00 0.000000e+00 1.000000e+00
 0.000000e+00 0.000000e+00 0.000000e+00
~t "TrP_3"
<TRANSP> 3
 0.000000e+00 1.000000e+00 0.000000e+00
 0.000000e+00 0.000000e+00 1.000000e+00
 0.000000e+00 0.000000e+00 0.000000e+00
~t "TrP_4"
<TRANSP> 3
 0.000000e+00 1.000000e+00 0.000000e+00
 0.000000e+00 0.000000e+00 1.000000e+00
 0.000000e+00 0.000000e+00 0.000000e+00
~t "TrP_5"
<TRANSP> 3
 0.000000e+00 1.000000e+00 0.000000e+00
 0.000000e+00 0.000000e+00 1.000000e+00
 0.000000e+00 0.000000e+00 0.000000e+00
~t "TrP_6"
<TRANSP> 3
 0.000000e+00 1.000000e+00 0.000000e+00
 0.000000e+00 0.000000e+00 1.000000e+00
 0.000000e+00 0.000000e+00 0.000000e+00
~t "TrP_7"
<TRANSP> 3
 0.000000e+00 1.000000e+00 0.000000e+00
 0.000000e+00 0.000000e+00 1.000000e+00
 0.000000e+00 0.000000e+00 0.000000e+00
~t "TrP_8"
<TRANSP> 3
 0.000000e+00 1.000000e+00 0.000000e+00
 0.000000e+00 0.000000e+00 1.000000e+00
 0.000000e+00 0.000000e+00 0.000000e+00
~t "TrP_9"
<TRANSP> 3
 0.000000e+00 1.000000e+00 0.000000e+00
 0.000000e+00 0.000000e+00 1.000000e+00
 0.000000e+00 0.000000e+00 0.000000e+00
~v "varFloor1"
<VARIANCE> 1
 7.805993e-02
~v "varFloor2"
<VARIANCE> 1
 1.600930e-01
~v "varFloor3"
<VARIANCE> 1
 7.674760e-01
~v "varFloor4"
<VARIANCE> 1
 8.903381e-01
~v "varFloor5"
<VARIANCE> 1
 9.033201e-02
~s "dur_s2_203"
<STREAM> 1
<MEAN> 1
 3.131606e+00
<VARIANCE> 1
 1.264961e+00
<GCONST> 2.072919e+00
<STREAM> 2
<MEAN> 1
 3.222440e+00
<VARIANCE> 1
 1.053071e+00
<GCONST> 1.889588e+00
<STREAM> 3
<MEAN> 1
 1.015596e+01
<VARIANCE> 1
 1.513857e+01
<GCONST> 4.555123e+00
<STREAM> 4
<MEAN> 1
 5.269139e+00
<VARIANCE> 1
 8.413005e+00
<GCONST> 3.967656e+00
<STREAM> 5
<MEAN> 1
 3.091036e+00
<VARIANCE> 1
 1.813873e+00
<GCONST> 2.433341e+00
~s "dur_s2_249"
<STREAM> 1
<MEAN> 1
 4.646578e+00
<VARIANCE> 1
 9.799091e+00
<GCONST> 4.120167e+00
<STREAM> 2
<MEAN> 1
 2.227144e+00
<VARIANCE> 1
 1.455982e+00
<GCONST> 2.213557e+00
<STREAM> 3
<MEAN> 1
 1.889265e+00
<VARIANCE> 1
 7.674760e-01
<GCONST> 1.573229e+00
<STREAM> 4
<MEAN> 1
 1.418619e+00
<VARIANCE> 1
 8.903381e-01
<GCONST> 1.721723e+00
<STREAM> 5
<MEAN> 1
 1.923252e+00
<VARIANCE> 1
 5.291827e-01
<GCONST> 1.201455e+00
~s "dur_s2_255"
<STREAM> 1
<MEAN> 1
 8.247167e+00
<VARIANCE> 1
 4.315946e+00
<GCONST> 3.300193e+00
<STREAM> 2
<MEAN> 1
 1.478496e+01
<VARIANCE> 1
 9.025624e+00
<GCONST> 4.037945e+00
<STREAM> 3
<MEAN> 1
 1.074026e+01
<VARIANCE> 1
 2.114921e+01
<GCONST> 4.889480e+00
<STREAM> 4
<MEAN> 1
 1.272638e+00
<VARIANCE> 1
 8.903381e-01
<GCONST> 1.721723e+00
<STREAM> 5
<MEAN> 1
 1.503213e+01
<VARIANCE> 1
 3.073795e+01
<GCONST> 5.263375e+00
~s "dur_s2_315"
<STREAM> 1
<MEAN> 1
 4.676496e+00
<VARIANCE> 1
 3.739082e+00
<GCONST> 3.156717e+00
<STREAM> 2
<MEAN> 1
 5.809805e+00
<VARIANCE> 1
 9.364791e+00
<GCONST> 4.074834e+00
<STREAM> 3
<MEAN> 1
 8.337081e+00
<VARIANCE> 1
 1.473821e+01
<GCONST> 4.528320e+00
<STREAM> 4
<MEAN> 1
 1.563845e+00
<VARIANCE> 1
 8.903381e-01
<GCONST> 1.721723e+00
<STREAM> 5
<MEAN> 1
 4.494761e+00
<VARIANCE> 1
 8.091092e+00
<GCONST> 3.928641e+00
~s "dur_s2_331"
<STREAM> 1
<MEAN> 1
 2.792796e+00
<VARIANCE> 1
 1.190846e+00
<GCONST> 2.012541e+00
<STREAM> 2
<MEAN> 1
 3.576407e+00
<VARIANCE> 1
 2.440772e+00
<GCONST> 2.730191e+00
<STREAM> 3
<MEAN> 1
 4.715442e+00
<VARIANCE> 1
 9.602199e+00
<GCONST> 4.099869e+00
<STREAM> 4
<MEAN> 1
 3.467537e+00
<VARIANCE> 1
 4.450029e+00
<GCONST> 3.330788e+00
<STREAM> 5
<MEAN> 1
 3.089811e+00
<VARIANCE> 1
 4.804021e+00
<GCONST> 3.407331e+00
~s "dur_s2_355"
<STREAM> 1
<MEAN> 1
 4.687025e+00
<VARIANCE> 1
 1.014362e+01
<GCONST> 4.154722e+00
<STREAM> 2
<MEAN> 1
 4.349440e+00
<VARIANCE> 1
 1.055402e+01
<GCONST> 4.194385e+00
<STREAM> 3
<MEAN> 1
 3.271467e+00
<VARIANCE> 1
 5.807430e+00
<GCONST> 3.597015e+00
<STREAM> 4
<MEAN> 1
 3.138005e+00
<VARIANCE> 1
 2.837784e+00
<GCONST> 2.880900e+00
<STREAM> 5
<MEAN> 1
 2.946207e+00
<VARIANCE> 1
 2.868594e+00
<GCONST> 2.891699e+00
~s "dur_s2_467"
<STREAM> 1
<MEAN> 1
 2.271789e+00
<VARIANCE> 1
 9.122924e-01
<GCONST> 1.746082e+00
<STREAM> 2
<MEAN> 1
 1.000209e+00
<VARIANCE> 1
 1.600930e-01
<GCONST> 5.876780e-03
<STREAM> 3
<MEAN> 1
 8.380322e+00
<VARIANCE> 1
 2.232569e+01
<GCONST> 4.943615e+00
<STREAM> 4
<MEAN> 1
 2.303404e+00
<VARIANCE> 1
 2.288551e+00
<GCONST> 2.665796e+00
<STREAM> 5
<MEAN> 1
 2.314854e+00
<VARIANCE> 1
 1.078688e+00
<GCONST> 1.913622e+00
~s "dur_s2_487"
<STREAM> 1
<MEAN> 1
 2.532642e+00
<VARIANCE> 1
 4.226959e+00
<GCONST> 3.279360e+00
<STREAM> 2
<MEAN> 1
 1.644969e+00
<VARIANCE> 1
 6.559927e-01
<GCONST> 1.416271e+00
<STREAM> 3
<MEAN> 1
 1.340985e+00
<VARIANCE> 1
 7.674760e-01
<GCONST> 1.573229e+00
<STREAM> 4
<MEAN> 1
 1.564725e+00
<VARIANCE> 1
 8.903381e-01
<GCONST> 1.721723e+00
<STREAM> 5
<MEAN> 1
 1.228238e+00
<VARIANCE> 1
 2.314815e-01
<GCONST> 3.746215e-01
~s "dur_s2_497"
<STREAM> 1
<MEAN> 1
 3.668056e+00
<VARIANCE> 1
 2.240435e+00
<GCONST> 2.644547e+00
<STREAM> 2
<MEAN> 1
 1.414189e+00
<VARIANCE> 1
 1.020875e+00
<GCONST> 1.858537e+00
<STREAM> 3
<MEAN> 1
 2.738581e+00
<VARIANCE> 1
 6.214859e+00
<GCONST> 3.664820e+00
<STREAM> 4
<MEAN> 1
 1.000754e+00
<VARIANCE> 1
 8.903381e-01
<GCONST> 1.721723e+00
<STREAM> 5
<MEAN> 1
 2.082837e+00
<VARIANCE> 1
 3.402236e+00
<GCONST> 3.062310e+00
~s "dur_s2_505"
<STREAM> 1
<MEAN> 1
 3.588061e+00
<VARIANCE> 1
 3.167979e+00
<GCONST> 2.990971e+00
<STREAM> 2
<MEAN> 1
 1.284323e+01
<VARIANCE> 1
 2.557429e+01
<GCONST> 5.079465e+00
<STREAM> 3
<MEAN> 1
 6.517050e+00
<VARIANCE> 1
 1.831284e+01
<GCONST> 4.745480e+00
<STREAM> 4
<MEAN> 1
 3.153000e+00
<VARIANCE> 1
 1.229274e+01
<GCONST> 4.346886e+00
<STREAM> 5
<MEAN> 1
 2.129475e+00
<VARIANCE> 1
 2.365511e+00
<GCONST> 2.698871e+00
~s "dur_s2_525"
<STREAM> 1
<MEAN> 1
 2.387773e+00
<VARIANCE> 1
 1.651327e+00
<GCONST> 2.339456e+00
<STREAM> 2
<MEAN> 1
 2.484751e+00
<VARIANCE> 1
 3.083443e+00
<GCONST> 2.963924e+00
<STREAM> 3
<MEAN> 1
 1.048646e+00
<VARIANCE> 1
 7.674760e-01
<GCONST> 1.573229e+00
<STREAM> 4
<MEAN> 1
 1.000082e+00
<VARIANCE> 1
 8.903381e-01
<GCONST> 1.721723e+00
<STREAM> 5
<MEAN> 1
 1.254884e+00
<VARIANCE> 1
 2.807962e-01
<GCONST> 5.677510e-01
~s "dur_s2_608"
<STREAM> 1
<MEAN> 1
 1.585578e+00
<VARIANCE> 1
 2.426764e-01
<GCONST> 4.218506e-01
<STREAM> 2
<MEAN> 1
 1.989309e+00
<VARIANCE> 1
 1.423346e+00
<GCONST> 2.190887e+00
<STREAM> 3
<MEAN> 1
 1.599581e+01
<VARIANCE> 1
 1.751075e+02
<GCONST> 7.003277e+00
<STREAM> 4
<MEAN> 1
 1.006477e+01
<VARIANCE> 1
 1.494948e+02
<GCONST> 6.845139e+00
<STREAM> 5
<MEAN> 1
 1.658268e+00
<VARIANCE> 1
 1.885337e+00
<GCONST> 2.471983e+00
~s "dur_s2_682"
<STREAM> 1
<MEAN> 1
 2.623828e+00
<VARIANCE> 1
 9.520409e-01
<GCONST> 1.788730e+00
<STREAM> 2
<MEAN> 1
 4.469886e+00
<VARIANCE> 1
 1.081750e+01
<GCONST> 4.219042e+00
<STREAM> 3
<MEAN> 1
 1.971009e+00
<VARIANCE> 1
 2.216678e+00
<GCONST> 2.633887e+00
<STREAM> 4
<MEAN> 1
 1.288076e+00
<VARIANCE> 1
 8.903381e-01
<GCONST> 1.721723e+00
<STREAM> 5
<MEAN> 1
 1.109168e+00
<VARIANCE> 1
 9.725055e-02
<GCONST> -4.925876e-01
~s "dur_s2_731"
<STREAM> 1
<MEAN> 1
 4.248926e+00
<VARIANCE> 1
 4.644021e+00
<GCONST> 3.373458e+00
<STREAM> 2
<MEAN> 1
 2.667798e+00
<VARIANCE> 1
 1.093794e+00
<GCONST> 1.927529e+00
<STREAM> 3
<MEAN> 1
 1.834243e+00
<VARIANCE> 1
 1.307248e+00
<GCONST> 2.105801e+00
<STREAM> 4
<MEAN> 1
 3.806475e+00
<VARIANCE> 1
 4.609363e+00
<GCONST> 3.365967e+00
<STREAM> 5
<MEAN> 1
 2.738497e+00
<VARIANCE> 1
 6.158800e+00
<GCONST> 3.655759e+00
~s "dur_s2_827"
<STREAM> 1
<MEAN> 1
 3.410936e+00
<VARIANCE> 1
 3.267042e+00
<GCONST> 3.021762e+00
<STREAM> 2
<MEAN> 1
 4.919566e+00
<VARIANCE> 1
 7.859149e+00
<GCONST> 3.899555e+00
<STREAM> 3
<MEAN> 1
 7.384925e+00
<VARIANCE> 1
 1.823125e+01
<GCONST> 4.741014e+00
<STREAM> 4
<MEAN> 1
 3.850300e+00
<VARIANCE> 1
 4.509531e+00
<GCONST> 3.344070e+00
<STREAM> 5
<MEAN> 1
 2.219184e+00
<VARIANCE> 1
 6.383076e-01
<GCONST> 1.388942e+00
~s "dur_s2_875"
<STREAM> 1
<MEAN> 1
 3.066935e+00
<VARIANCE> 1
 2.128212e+00
<GCONST> 2.593159e+00
<STREAM> 2
<MEAN> 1
 4.016018e+00
<VARIANCE> 1
 9.030440e+00
<GCONST> 4.038478e+00
<STREAM> 3
<MEAN> 1
 1.516937e+00
<VARIANCE> 1
 7.725694e-01
<GCONST> 1.579844e+00
<STREAM> 4
<MEAN> 1
 1.420520e+00
<VARIANCE> 1
 8.903381e-01
<GCONST> 1.721723e+00
<STREAM> 5
<MEAN> 1
 1.513984e+00
<VARIANCE> 1
 6.724930e-01
<GCONST> 1.441113e+00
~s "dur_s2_903"
<STREAM> 1
<MEAN> 1
 3.258999e+00
<VARIANCE> 1
 2.053994e+00
<GCONST> 2.557663e+00
<STREAM> 2
<MEAN> 1
 3.093465e+00
<VARIANCE> 1
 7.083881e-01
<GCONST> 1.493114e+00
<STREAM> 3
<MEAN> 1
 5.593102e+00
<VARIANCE> 1
 1.084525e+01
<GCONST> 4.221604e+00
<STREAM> 4
<MEAN> 1
 1.968070e+00
<VARIANCE> 1
 1.098127e+00
<GCONST> 1.931483e+00
<STREAM> 5
<MEAN> 1
 1.836484e+00
<VARIANCE> 1
 1.197767e+00
<GCONST> 2.018337e+00
~s "dur_s2_945"
<STREAM> 1
<MEAN> 1
 2.391762e+00
<VARIANCE> 1
 2.388391e+00
<GCONST> 2.708497e+00
<STREAM> 2
<MEAN> 1
 1.636147e+00
<VARIANCE> 1
 9.584632e-01
<GCONST> 1.795453e+00
<STREAM> 3
<MEAN> 1
 3.611060e+00
<VARIANCE> 1
 1.032658e+01
<GCONST> 4.172598e+00
<STREAM> 4
<MEAN> 1
 1.462231e+00
<VARIANCE> 1
 8.903381e-01
<GCONST> 1.721723e+00
<STREAM> 5
<MEAN> 1
 1.371026e+00
<VARIANCE> 1
 3.679846e-01
<GCONST> 8.381627e-01
~s "dur_s2_1034"
<STREAM> 1
<MEAN> 1
 3.196111e+00
<VARIANCE> 1
 1.425143e+00
<GCONST> 2.192150e+00
<STREAM> 2
<MEAN> 1
 3.894190e+00
<VARIANCE> 1
 7.386341e+00
<GCONST> 3.837510e+00
<STREAM> 3
<MEAN> 1
 7.325091e+00
<VARIANCE> 1
 7.771403e+01
<GCONST> 6.190913e+00
<STREAM> 4
<MEAN> 1
 2.141059e+01
<VARIANCE> 1
 9.256317e+01
<GCONST> 6.365768e+00
<STREAM> 5
<MEAN> 1
 5.658225e+00
<VARIANCE> 1
 8.743748e+00
<GCONST> 4.006216e+00
~s "dur_s2_1042"
<STREAM> 1
<MEAN> 1
 1.043884e+00
<VARIANCE> 1
 7.805993e-02
<GCONST> -7.124014e-01
<STREAM> 2
<MEAN> 1
 1.816496e+00
<VARIANCE> 1
 1.292036e+00
<GCONST> 2.094096e+00
<STREAM> 3
<MEAN> 1
 1.484748e+00
<VARIANCE> 1
 7.674760e-01
<GCONST> 1.573229e+00
<STREAM> 4
<MEAN> 1
 1.325011e+00
<VARIANCE> 1
 8.903381e-01
<GCONST> 1.721723e+00
<STREAM> 5
<MEAN> 1
 1.272578e+00
<VARIANCE> 1
 4.670907e-01
<GCONST> 1.076645e+00
~s "dur_s2_1054"
<STREAM> 1
<MEAN> 1
 3.757940e+00
<VARIANCE> 1
 5.813489e+00
<GCONST> 3.598058e+00
<STREAM> 2
<MEAN> 1
 2.303231e+00
<VARIANCE> 1
 8.780209e-01
<GCONST> 1.707792e+00
<STREAM> 3
<MEAN> 1
 2.473942e+00
<VARIANCE> 1
 3.564221e+00
<GCONST> 3.108823e+00
<STREAM> 4
<MEAN> 1
 1.889955e+00
<VARIANCE> 1
 8.903381e-01
<GCONST> 1.721723e+00
<STREAM> 5
<MEAN> 1
 2.129651e+00
<VARIANCE> 1
 5.593651e-01
<GCONST> 1.256924e+00
~s "dur_s2_1100"
<STREAM> 1
<MEAN> 1
 1.676452e+00
<VARIANCE> 1
 1.437606e+00
<GCONST> 2.200856e+00
<STREAM> 2
<MEAN> 1
 1.585533e+00
<VARIANCE> 1
 1.050901e+00
<GCONST> 1.887524e+00
<STREAM> 3
<MEAN> 1
 1.569331e+00
<VARIANCE> 1
 1.201204e+00
<GCONST> 2.021201e+00
<STREAM> 4
<MEAN> 1
 1.535633e+00
<VARIANCE> 1
 1.410970e+00
<GCONST> 2.182154e+00
<STREAM> 5
<MEAN> 1
 1.911582e+00
<VARIANCE> 1
 1.686237e+00
<GCONST> 2.360377e+00
~s "dur_s2_5"
<STREAM> 1
<MEAN> 1
 4.572795e+00
<VARIANCE> 1
 4.377010e+00
<GCONST> 3.314243e+00
<STREAM> 2
<MEAN> 1
 5.415405e+00
<VARIANCE> 1
 1.235741e+01
<GCONST> 4.352133e+00
<STREAM> 3
<MEAN> 1
 1.876530e+00
<VARIANCE> 1
 8.286831e-01
<GCONST> 1.649960e+00
<STREAM> 4
<MEAN> 1
 1.703061e+00
<VARIANCE> 1
 9.511240e-01
<GCONST> 1.787766e+00
<STREAM> 5
<MEAN> 1
 1.704075e+00
<VARIANCE> 1
 1.757485e+00
<GCONST> 2.401761e+00
~s "dur_s2_66"
<STREAM> 1
<MEAN> 1
 3.739852e+00
<VARIANCE> 1
 2.616396e+00
<GCONST> 2.799675e+00
<STREAM> 2
<MEAN> 1
 3.399596e+00
<VARIANCE> 1
 3.509927e+00
<GCONST> 3.093472e+00
<STREAM> 3
<MEAN> 1
 2.015675e+00
<VARIANCE> 1
 7.674760e-01
<GCONST> 1.573229e+00
<STREAM> 4
<MEAN> 1
 2.507687e+00
<VARIANCE> 1
 1.758454e+00
<GCONST> 2.402312e+00
<STREAM> 5
<MEAN> 1
 2.558610e+00
<VARIANCE> 1
 7.012931e-01
<GCONST> 1.483048e+00
~s "dur_s2_79"
<STREAM> 1
<MEAN> 1
 8.358292e+00
<VARIANCE> 1
 2.542609e+01
<GCONST> 5.073653e+00
<STREAM> 2
<MEAN> 1
 1.199272e+01
<VARIANCE> 1
 1.413103e+02
<GCONST> 6.788836e+00
<STREAM> 3
<MEAN> 1
 3.436488e+00
<VARIANCE> 1
 1.261786e+01
<GCONST> 4.372991e+00
<STREAM> 4
<MEAN> 1
 2.804928e+01
<VARIANCE> 1
 7.445082e+02
<GCONST> 8.450601e+00
<STREAM> 5
<MEAN> 1
 2.000000e+00
<VARIANCE> 1
 9.033201e-02
<GCONST> -5.663865e-01
~h "xx~xx-#+s=t:xx_xx/A/0_0_0/B/xx-xx-xx:xx-xx&xx-xx#xx-xx$xx-xx>xx-xx<xx-xx|xx/C/1+1+4/D/0_0/E/xx+xx:xx+xx&xx+xx#xx+xx/F/content_1/G/0_0/H/xx=xx:1=1&0/I/9_7/J/9+7-1"
<BEGINHMM>
<NUMSTATES> 3
<STATE> 2
~s "dur_s2_608"
~t "TrP_7"
<ENDHMM>
~h "w~Q-tS+D=@:3_1/A/1_0_3/B/1-0-3:1-1&6-4#3-4$2-2>1-1<4-3|Q/C/1+0+2/D/cc_1/E/content+1:4+4&3+2#2+2/F/det_1/G/0_0/H/9=7:1=1&L-L%/I/0_0/J/9+7-1"
<BEGINHMM>
<NUMSTATES> 3
<STATE> 2
~s "dur_s2_315"
~t "TrP_6"
<ENDHMM>
~h "Q~p-w+I=s:1_2/A/1_1_4/B/1-1-2:1-3&2-8#1-6$1-2>1-3<1-7|I/C/0+0+2/D/content_1/E/content+3:2+6&2+3#1+2/F/cc_1/G/0_0/H/9=7:1=1&L-L%/I/0_0/J/9+7-1"
<BEGINHMM>
<NUMSTATES> 3
<STATE> 2
~s "dur_s2_355"
~t "TrP_9"
<ENDHMM>
~h "a~n-d+w=Q:3_1/A/0_0_2/B/1-0-3:1-1&5-5#2-5$2-2>3-1<3-4|a/C/1+0+3/D/content_3/E/cc+1:3+5&3+3#1+1/F/content_1/G/0_0/H/9=7:1=1&L-L%/I/0_0/J/9+7-1"
<BEGINHMM>
<NUMSTATES> 3
<STATE> 2
~s "dur_s2_1100"
~t "TrP_3"
<ENDHMM>
~h "Q~tS-D+@=b:1_2/A/1_0_3/B/1-0-2:1-1&7-3#4-3$2-2>1-1<5-2|@/C/1+0+3/D/content_1/E/det+1:5+3&4+2#1+1/F/content_1/G/0_0/H/9=7:1=1&L-L%/I/0_0/J/9+7-1"
<BEGINHMM>
<NUMSTATES> 3
<STATE> 2
~s "dur_s2_487"
~t "TrP_6"
<ENDHMM>
~h "A~tS-#+xx=xx:xx_xx/A/1_1_3/B/xx-xx-xx:xx-xx&xx-xx#xx-xx$xx-xx>xx-xx<xx-xx|xx/C/0+0+0/D/content_1/E/xx+xx:xx+xx&xx+xx#xx+xx/F/0_0/G/9_7/H/xx=xx:1=1&0/I/0_0/J/9+7-1"
<BEGINHMM>
<NUMSTATES> 3
<STATE> 2
~s "dur_s2_79"
~t "TrP_7"
<ENDHMM>
~h "n~d-w+Q=tS:1_3/A/1_0_3/B/1-0-3:1-1&6-4#3-4$2-2>1-1<4-3|Q/C/1+0+2/D/cc_1/E/content+1:4+4&3+2#2+2/F/det_1/G/0_0/H/9=7:1=1&L-L%/I/0_0/J/9+7-1"
<BEGINHMM>
<NUMSTATES> 3
<STATE> 2
~s "dur_s2_355"
~t "TrP_9"
<ENDHMM>
~h "xx~#-s+t=Q:1_4/A/0_0_0/B/1-1-4:1-1&1-9#1-7$1-3>0-1<0-1|Q/C/1+1+2/D/0_0/E/content+1:1+7&1+4#0+1/F/content_3/G/0_0/H/9=7:1=1&L-L%/I/0_0/J/9+7-1"
<BEGINHMM>
<NUMSTATES> 3
<STATE> 2
~s "dur_s2_827"
~t "TrP_1"
<ENDHMM>
~h "p~w-I+s=l!:2_1/A/1_1_4/B/1-1-2:1-3&2-8#1-6$1-2>1-3<1-7|I/C/0+0+2/D/content_1/E/content+3:2+6&2+3#1+2/F/cc_1/G/0_0/H/9=7:1=1&L-L%/I/0_0/J/9+7-1"
<BEGINHMM>
<NUMSTATES> 3
<STATE> 2
~s "dur_s2_525"
~t "TrP_4"
<ENDHMM>
~h "I~s-l!+I=N:2_1/A/1_1_2/B/0-0-2:2-2&3-7#2-6$2-2>1-2<1-6|novowel/C/0+0+2/D/content_1/E/content+3:2+6&2+3#1+2/F/cc_1/G/0_0/H/9=7:1=1&L-L%/I/0_0/J/9+7-1"
<BEGINHMM>
<NUMSTATES> 3
<STATE> 2
~s "dur_s2_497"
~t "TrP_7"
<ENDHMM>
~h "z~m-A+tS=#:2_2/A/1_0_3/B/1-1-3:1-1&9-1#6-1$2-1>1-0<7-0|A/C/0+0+0/D/content_1/E/content+1:7+1&5+0#1+0/F/0_0/G/0_0/H/9=7:1=1&L-L%/I/0_0/J/9+7-1"
<BEGINHMM>
<NUMSTATES> 3
<STATE> 2
~s "dur_s2_1034"
~t "TrP_4"
<ENDHMM>
~h "@~b-OI+z=m:2_2/A/1_0_2/B/1-0-3:1-1&8-2#5-2$2-2>1-1<6-1|OI/C/1+1+3/D/det_1/E/content+1:6+2&4+1#2+1/F/content_1/G/0_0/H/9=7:1=1&L-L%/I/0_0/J/9+7-1"
<BEGINHMM>
<NUMSTATES> 3
<STATE> 2
~s "dur_s2_505"
~t "TrP_2"
<ENDHMM>
~h "tS~D-@+b=OI:2_1/A/1_0_3/B/1-0-2:1-1&7-3#4-3$2-2>1-1<5-2|@/C/1+0+3/D/content_1/E/det+1:5+3&4+2#1+1/F/content_1/G/0_0/H/9=7:1=1&L-L%/I/0_0/J/9+7-1"
<BEGINHMM>
<NUMSTATES> 3
<STATE> 2
~s "dur_s2_1042"
~t "TrP_2"
<ENDHMM>
~h "d~w-Q+tS=D:2_2/A/1_0_3/B/1-0-3:1-1&6-4#3-4$2-2>1-1<4-3|Q/C/1+0+2/D/cc_1/E/content+1:4+4&3+2#2+2/F/det_1/G/0_0/H/9=7:1=1&L-L%/I/0_0/J/9+7-1"
<BEGINHMM>
<NUMSTATES> 3
<STATE> 2
~s "dur_s2_467"
~t "TrP_9"
<ENDHMM>
~h "m~A-tS+#=xx:3_1/A/1_0_3/B/1-1-3:1-1&9-1#6-1$2-1>1-0<7-0|A/C/0+0+0/D/content_1/E/content+1:7+1&5+0#1+0/F/0_0/G/0_0/H/9=7:1=1&L-L%/I/0_0/J/9+7-1"
<BEGINHMM>
<NUMSTATES> 3
<STATE> 2
~s "dur_s2_255"
~t "TrP_6"
<ENDHMM>
~h "w~I-s+l!=I:1_2/A/1_1_2/B/0-0-2:2-2&3-7#2-6$2-2>1-2<1-6|novowel/C/0+0+2/D/content_1/E/content+3:2+6&2+3#1+2/F/cc_1/G/0_0/H/9=7:1=1&L-L%/I/0_0/J/9+7-1"
<BEGINHMM>
<NUMSTATES> 3
<STATE> 2
~s "dur_s2_203"
~t "TrP_1"
<ENDHMM>
~h "D~@-b+OI=z:1_3/A/1_0_2/B/1-0-3:1-1&8-2#5-2$2-2>1-1<6-1|OI/C/1+1+3/D/det_1/E/content+1:6+2&4+1#2+1/F/content_1/G/0_0/H/9=7:1=1&L-L%/I/0_0/J/9+7-1"
<BEGINHMM>
<NUMSTATES> 3
<STATE> 2
~s "dur_s2_249"
~t "TrP_9"
<ENDHMM>
~h "s~t-Q+p=w:3_2/A/0_0_0/B/1-1-4:1-1&1-9#1-7$1-3>0-1<0-1|Q/C/1+1+2/D/0_0/E/content+1:1+7&1+4#0+1/F/content_3/G/0_0/H/9=7:1=1&L-L%/I/0_0/J/9+7-1"
<BEGINHMM>
<NUMSTATES> 3
<STATE> 2
~s "dur_s2_331"
~t "TrP_9"
<ENDHMM>
~h "s~l!-I+N=a:1_2/A/0_0_2/B/0-0-2:3-1&4-6#2-6$2-2>2-1<2-5|I/C/1+0+3/D/content_1/E/content+3:2+6&2+3#1+2/F/cc_1/G/0_0/H/9=7:1=1&L-L%/I/0_0/J/9+7-1"
<BEGINHMM>
<NUMSTATES> 3
<STATE> 2
~s "dur_s2_875"
~t "TrP_4"
<ENDHMM>
~h "b~OI-z+m=A:3_1/A/1_0_2/B/1-0-3:1-1&8-2#5-2$2-2>1-1<6-1|OI/C/1+1+3/D/det_1/E/content+1:6+2&4+1#2+1/F/content_1/G/0_0/H/9=7:1=1&L-L%/I/0_0/J/9+7-1"
<BEGINHMM>
<NUMSTATES> 3
<STATE> 2
~s "dur_s2_731"
~t "TrP_9"
<ENDHMM>
~h "I~N-a+n=d:1_3/A/0_0_2/B/1-0-3:1-1&5-5#2-5$2-2>3-1<3-4|a/C/1+0+3/D/content_3/E/cc+1:3+5&3+3#1+1/F/content_1/G/0_0/H/9=7:1=1&L-L%/I/0_0/J/9+7-1"
<BEGINHMM>
<NUMSTATES> 3
<STATE> 2
~s "dur_s2_945"
~t "TrP_5"
<ENDHMM>
~h "l!~I-N+a=n:2_1/A/0_0_2/B/0-0-2:3-1&4-6#2-6$2-2>2-1<2-5|I/C/1+0+3/D/content_1/E/content+3:2+6&2+3#1+2/F/cc_1/G/0_0/H/9=7:1=1&L-L%/I/0_0/J/9+7-1"
<BEGINHMM>
<NUMSTATES> 3
<STATE> 2
~s "dur_s2_903"
~t "TrP_9"
<ENDHMM>
~h "OI~z-m+A=tS:1_3/A/1_0_3/B/1-1-3:1-1&9-1#6-1$2-1>1-0<7-0|A/C/0+0+0/D/content_1/E/content+1:7+1&5+0#1+0/F/0_0/G/0_0/H/9=7:1=1&L-L%/I/0_0/J/9+7-1"
<BEGINHMM>
<NUMSTATES> 3
<STATE> 2
~s "dur_s2_1054"
~t "TrP_10"
<ENDHMM>
~h "N~a-n+d=w:2_2/A/0_0_2/B/1-0-3:1-1&5-5#2-5$2-2>3-1<3-4|a/C/1+0+3/D/content_3/E/cc+1:3+5&3+3#1+1/F/content_1/G/0_0/H/9=7:1=1&L-L%/I/0_0/J/9+7-1"
<BEGINHMM>
<NUMSTATES> 3
<STATE> 2
~s "dur_s2_682"
~t "TrP_8"
<ENDHMM>
~h "#~s-t+Q=p:2_3/A/0_0_0/B/1-1-4:1-1&1-9#1-7$1-3>0-1<0-1|Q/C/1+1+2/D/0_0/E/content+1:1+7&1+4#0+1/F/content_3/G/0_0/H/9=7:1=1&L-L%/I/0_0/J/9+7-1"
<BEGINHMM>
<NUMSTATES> 3
<STATE> 2
~s "dur_s2_66"
~t "TrP_4"
<ENDHMM>
~h "t~Q-p+w=I:4_1/A/0_0_0/B/1-1-4:1-1&1-9#1-7$1-3>0-1<0-1|Q/C/1+1+2/D/0_0/E/content+1:1+7&1+4#0+1/F/content_3/G/0_0/H/9=7:1=1&L-L%/I/0_0/J/9+7-1"
<BEGINHMM>
<NUMSTATES> 3
<STATE> 2
~s "dur_s2_5"
~t "TrP_10"
<ENDHMM>
