~o
<STREAMINFO> 5 1 1 1 1 1
<VECSIZE> 5<NULLD><USER><DIAGC>
~t "TrP_10"
<TRANSP> 3
 0.000000e+00 1.000000e+00 0.000000e+00
 0.000000e+00 0.000000e+00 1.000000e+00
 0.000000e+00 0.000000e+00 0.000000e+00
~t "TrP_1"
<TRANSP> 3
 0.000000e+00 1.000000e+00 0.000000e+00
 0.000000e+00 0.000000e+00 1.000000e+00
 0.000000e+00 0.000000e+00 0.000000e+00
~t "TrP_2"
<TRANSP> 3
 0.000000e+00 1.000000e+00 0.000000e+00
 0.000000e+00 0.000000e+00 1.000000e+00
 0.000000e+00 0.000000e+00 0.000000e+00
~t "TrP_3"
<TRANSP> 3
 0.000000e+00 1.000000e+00 0.000000e+00
 0.000000e+00 0.000000e+00 1.000000e+00
 0.000000e+00 0.000000e+00 0.000000e+00
~t "TrP_4"
<TRANSP> 3
 0.000000e+00 1.000000e+00 0.000000e+00
 0.000000e+00 0.000000e+00 1.000000e+00
 0.000000e+00 0.000000e+00 0.000000e+00
~t "TrP_5"
<TRANSP> 3
 0.000000e+00 1.000000e+00 0.000000e+00
 0.000000e+00 0.000000e+00 1.000000e+00
 0.000000e+00 0.000000e+00 0.000000e+00
~t "TrP_6"
<TRANSP> 3
 0.000000e+00 1.000000e+00 0.000000e+00
 0.000000e+00 0.000000e+00 1.000000e+00
 0.000000e+00 0.000000e+00 0.000000e+00
~t "TrP_7"
<TRANSP> 3
 0.000000e+00 1.000000e+00 0.000000e+00
 0.000000e+00 0.000000e+00 1.000000e+00
 0.000000e+00 0.000000e+00 0.000000e+00
~t "TrP_8"
<TRANSP> 3
 0.000000e+00 1.000000e+00 0.000000e+00
 0.000000e+00 0.000000e+00 1.000000e+00
 0.000000e+00 0.000000e+00 0.000000e+00
~t "TrP_9"
<TRANSP> 3
 0.000000e+00 1.000000e+00 0.000000e+00
 0.000000e+00 0.000000e+00 1.000000e+00
 0.000000e+00 0.000000e+00 0.000000e+00
~v "varFloor1"
<VARIANCE> 1
 7.805993e-02
~v "varFloor2"
<VARIANCE> 1
 1.600930e-01
~v "varFloor3"
<VARIANCE> 1
 7.674760e-01
~v "varFloor4"
<VARIANCE> 1
 8.903381e-01
~v "varFloor5"
<VARIANCE> 1
 9.033201e-02
~s "dur_s2_120"
<STREAM> 1
<MEAN> 1
 3.934616e+00
<VARIANCE> 1
 2.884319e+00
<GCONST> 2.897166e+00
<STREAM> 2
<MEAN> 1
 2.702636e+00
<VARIANCE> 1
 3.030589e+00
<GCONST> 2.946634e+00
<STREAM> 3
<MEAN> 1
 2.986549e+00
<VARIANCE> 1
 5.977269e+00
<GCONST> 3.625841e+00
<STREAM> 4
<MEAN> 1
 1.644413e+00
<VARIANCE> 1
 9.367131e-01
<GCONST> 1.772499e+00
<STREAM> 5
<MEAN> 1
 1.678692e+00
<VARIANCE> 1
 1.997608e+00
<GCONST> 2.529827e+00
~s "dur_s2_121"
<STREAM> 1
<MEAN> 1
 5.008975e+00
<VARIANCE> 1
 4.370883e+00
<GCONST> 3.312842e+00
<STREAM> 2
<MEAN> 1
 4.704460e+00
<VARIANCE> 1
 9.473927e+00
<GCONST> 4.086421e+00
<STREAM> 3
<MEAN> 1
 1.876019e+00
<VARIANCE> 1
 7.702240e-01
<GCONST> 1.576803e+00
<STREAM> 4
<MEAN> 1
 1.920246e+00
<VARIANCE> 1
 1.078014e+00
<GCONST> 1.912997e+00
<STREAM> 5
<MEAN> 1
 2.582782e+00
<VARIANCE> 1
 5.023196e+00
<GCONST> 3.451943e+00
~s "dur_s2_159"
<STREAM> 1
<MEAN> 1
 2.177243e+00
<VARIANCE> 1
 7.558445e-01
<GCONST> 1.557957e+00
<STREAM> 2
<MEAN> 1
 2.178301e+00
<VARIANCE> 1
 5.240585e-01
<GCONST> 1.191725e+00
<STREAM> 3
<MEAN> 1
 5.708945e+00
<VARIANCE> 1
 1.430583e+01
<GCONST> 4.498545e+00
<STREAM> 4
<MEAN> 1
 2.124747e+00
<VARIANCE> 1
 1.568456e+00
<GCONST> 2.287969e+00
<STREAM> 5
<MEAN> 1
 2.070950e+00
<VARIANCE> 1
 1.679271e+00
<GCONST> 2.356237e+00
~s "dur_s2_160"
<STREAM> 1
<MEAN> 1
 2.403820e+00
<VARIANCE> 1
 3.885323e+00
<GCONST> 3.195083e+00
<STREAM> 2
<MEAN> 1
 1.692828e+00
<VARIANCE> 1
 6.385069e-01
<GCONST> 1.389254e+00
<STREAM> 3
<MEAN> 1
 2.683339e+00
<VARIANCE> 1
 4.019511e+00
<GCONST> 3.229037e+00
<STREAM> 4
<MEAN> 1
 2.960542e+00
<VARIANCE> 1
 3.710278e+00
<GCONST> 3.148984e+00
<STREAM> 5
<MEAN> 1
 1.174217e+00
<VARIANCE> 1
 1.538472e-01
<GCONST> -3.391862e-02
~s "dur_s2_262"
<STREAM> 1
<MEAN> 1
 9.112018e+00
<VARIANCE> 1
 5.227150e+01
<GCONST> 5.794329e+00
<STREAM> 2
<MEAN> 1
 1.093067e+01
<VARIANCE> 1
 4.877882e+01
<GCONST> 5.725173e+00
<STREAM> 3
<MEAN> 1
 2.491555e+00
<VARIANCE> 1
 3.517641e+00
<GCONST> 3.095668e+00
<STREAM> 4
<MEAN> 1
 2.244429e+00
<VARIANCE> 1
 2.510401e+00
<GCONST> 2.758319e+00
<STREAM> 5
<MEAN> 1
 1.841561e+00
<VARIANCE> 1
 7.240381e-01
<GCONST> 1.514966e+00
~s "dur_s2_264"
<STREAM> 1
<MEAN> 1
 1.161266e+00
<VARIANCE> 1
 1.674942e-01
<GCONST> 5.107045e-02
<STREAM> 2
<MEAN> 1
 1.909264e+00
<VARIANCE> 1
 1.778792e+00
<GCONST> 2.413812e+00
<STREAM> 3
<MEAN> 1
 1.348349e+00
<VARIANCE> 1
 7.674760e-01
<GCONST> 1.573229e+00
<STREAM> 4
<MEAN> 1
 1.422571e+00
<VARIANCE> 1
 8.903381e-01
<GCONST> 1.721723e+00
<STREAM> 5
<MEAN> 1
 1.001513e+00
<VARIANCE> 1
 9.033201e-02
<GCONST> -5.663865e-01
~s "dur_s2_487"
<STREAM> 1
<MEAN> 1
 2.532642e+00
<VARIANCE> 1
 4.226959e+00
<GCONST> 3.279360e+00
<STREAM> 2
<MEAN> 1
 1.644969e+00
<VARIANCE> 1
 6.559927e-01
<GCONST> 1.416271e+00
<STREAM> 3
<MEAN> 1
 1.340985e+00
<VARIANCE> 1
 7.674760e-01
<GCONST> 1.573229e+00
<STREAM> 4
<MEAN> 1
 1.564725e+00
<VARIANCE> 1
 8.903381e-01
<GCONST> 1.721723e+00
<STREAM> 5
<MEAN> 1
 1.228238e+00
<VARIANCE> 1
 2.314815e-01
<GCONST> 3.746215e-01
~s "dur_s2_563"
<STREAM> 1
<MEAN> 1
 3.893697e+00
<VARIANCE> 1
 3.888166e+00
<GCONST> 3.195815e+00
<STREAM> 2
<MEAN> 1
 2.881459e+00
<VARIANCE> 1
 2.315270e+00
<GCONST> 2.677403e+00
<STREAM> 3
<MEAN> 1
 2.545424e+00
<VARIANCE> 1
 7.674760e-01
<GCONST> 1.573229e+00
<STREAM> 4
<MEAN> 1
 2.558353e+00
<VARIANCE> 1
 8.903381e-01
<GCONST> 1.721723e+00
<STREAM> 5
<MEAN> 1
 2.526950e+00
<VARIANCE> 1
 5.002503e-01
<GCONST> 1.145230e+00
~s "dur_s2_603"
<STREAM> 1
<MEAN> 1
 9.382940e+00
<VARIANCE> 1
 1.573001e+01
<GCONST> 4.593448e+00
<STREAM> 2
<MEAN> 1
 9.408404e+00
<VARIANCE> 1
 4.841070e+01
<GCONST> 5.717598e+00
<STREAM> 3
<MEAN> 1
 9.279096e+00
<VARIANCE> 1
 1.227879e+02
<GCONST> 6.648335e+00
<STREAM> 4
<MEAN> 1
 3.370513e+01
<VARIANCE> 1
 7.511259e+02
<GCONST> 8.459451e+00
<STREAM> 5
<MEAN> 1
 1.999887e+00
<VARIANCE> 1
 9.033201e-02
<GCONST> -5.663865e-01
~s "dur_s2_611"
<STREAM> 1
<MEAN> 1
 3.179739e+00
<VARIANCE> 1
 2.685132e+00
<GCONST> 2.825607e+00
<STREAM> 2
<MEAN> 1
 1.086622e+01
<VARIANCE> 1
 7.833170e+01
<GCONST> 6.198830e+00
<STREAM> 3
<MEAN> 1
 7.155005e+00
<VARIANCE> 1
 5.046852e+01
<GCONST> 5.759227e+00
<STREAM> 4
<MEAN> 1
 8.095433e+00
<VARIANCE> 1
 3.887621e+01
<GCONST> 5.498260e+00
<STREAM> 5
<MEAN> 1
 3.120691e+00
<VARIANCE> 1
 5.722173e+00
<GCONST> 3.582226e+00
~s "dur_s2_679"
<STREAM> 1
<MEAN> 1
 5.676684e+00
<VARIANCE> 1
 1.144328e+01
<GCONST> 4.275280e+00
<STREAM> 2
<MEAN> 1
 6.554567e+00
<VARIANCE> 1
 1.303280e+01
<GCONST> 4.405346e+00
<STREAM> 3
<MEAN> 1
 9.519539e+00
<VARIANCE> 1
 3.607761e+01
<GCONST> 5.423550e+00
<STREAM> 4
<MEAN> 1
 4.782367e+00
<VARIANCE> 1
 4.564192e+00
<GCONST> 3.356118e+00
<STREAM> 5
<MEAN> 1
 3.818191e+00
<VARIANCE> 1
 3.608877e+00
<GCONST> 3.121274e+00
~s "dur_s2_682"
<STREAM> 1
<MEAN> 1
 2.623828e+00
<VARIANCE> 1
 9.520409e-01
<GCONST> 1.788730e+00
<STREAM> 2
<MEAN> 1
 4.469886e+00
<VARIANCE> 1
 1.081750e+01
<GCONST> 4.219042e+00
<STREAM> 3
<MEAN> 1
 1.971009e+00
<VARIANCE> 1
 2.216678e+00
<GCONST> 2.633887e+00
<STREAM> 4
<MEAN> 1
 1.288076e+00
<VARIANCE> 1
 8.903381e-01
<GCONST> 1.721723e+00
<STREAM> 5
<MEAN> 1
 1.109168e+00
<VARIANCE> 1
 9.725055e-02
<GCONST> -4.925876e-01
~s "dur_s2_714"
<STREAM> 1
<MEAN> 1
 4.176955e+00
<VARIANCE> 1
 5.956344e+00
<GCONST> 3.622334e+00
<STREAM> 2
<MEAN> 1
 1.511711e+01
<VARIANCE> 1
 9.524435e+01
<GCONST> 6.394322e+00
<STREAM> 3
<MEAN> 1
 9.858581e+00
<VARIANCE> 1
 5.663113e+01
<GCONST> 5.874436e+00
<STREAM> 4
<MEAN> 1
 4.959299e+00
<VARIANCE> 1
 1.812285e+01
<GCONST> 4.735050e+00
<STREAM> 5
<MEAN> 1
 1.711218e+00
<VARIANCE> 1
 1.634541e+00
<GCONST> 2.329239e+00
~s "dur_s2_780"
<STREAM> 1
<MEAN> 1
 2.977695e+00
<VARIANCE> 1
 9.839498e-01
<GCONST> 1.821697e+00
<STREAM> 2
<MEAN> 1
 6.047715e+00
<VARIANCE> 1
 7.168542e+00
<GCONST> 3.807580e+00
<STREAM> 3
<MEAN> 1
 2.412816e+00
<VARIANCE> 1
 1.823756e+00
<GCONST> 2.438775e+00
<STREAM> 4
<MEAN> 1
 1.577592e+00
<VARIANCE> 1
 8.903381e-01
<GCONST> 1.721723e+00
<STREAM> 5
<MEAN> 1
 1.591695e+00
<VARIANCE> 1
 7.074214e-01
<GCONST> 1.491748e+00
~s "dur_s2_826"
<STREAM> 1
<MEAN> 1
 2.232775e+00
<VARIANCE> 1
 1.845219e+00
<GCONST> 2.450475e+00
<STREAM> 2
<MEAN> 1
 2.157538e+00
<VARIANCE> 1
 1.001028e+00
<GCONST> 1.838905e+00
<STREAM> 3
<MEAN> 1
 2.103105e+00
<VARIANCE> 1
 7.674760e-01
<GCONST> 1.573229e+00
<STREAM> 4
<MEAN> 1
 2.523563e+00
<VARIANCE> 1
 8.903381e-01
<GCONST> 1.721723e+00
<STREAM> 5
<MEAN> 1
 6.360253e+00
<VARIANCE> 1
 6.283805e+00
<GCONST> 3.675853e+00
~s "dur_s2_837"
<STREAM> 1
<MEAN> 1
 1.920938e+00
<VARIANCE> 1
 1.214739e+00
<GCONST> 2.032406e+00
<STREAM> 2
<MEAN> 1
 3.036846e+00
<VARIANCE> 1
 8.971218e+00
<GCONST> 4.031898e+00
<STREAM> 3
<MEAN> 1
 1.394982e+00
<VARIANCE> 1
 7.674760e-01
<GCONST> 1.573229e+00
<STREAM> 4
<MEAN> 1
 1.544722e+00
<VARIANCE> 1
 9.550264e-01
<GCONST> 1.791861e+00
<STREAM> 5
<MEAN> 1
 1.334288e+00
<VARIANCE> 1
 7.151485e-01
<GCONST> 1.502612e+00
~s "dur_s2_839"
<STREAM> 1
<MEAN> 1
 2.918189e+00
<VARIANCE> 1
 3.093475e+00
<GCONST> 2.967172e+00
<STREAM> 2
<MEAN> 1
 2.746448e+00
<VARIANCE> 1
 3.302124e+00
<GCONST> 3.032443e+00
<STREAM> 3
<MEAN> 1
 2.167903e+00
<VARIANCE> 1
 7.674760e-01
<GCONST> 1.573229e+00
<STREAM> 4
<MEAN> 1
 4.084674e+00
<VARIANCE> 1
 1.357382e+00
<GCONST> 2.143435e+00
<STREAM> 5
<MEAN> 1
 6.326278e+00
<VARIANCE> 1
 3.699002e+00
<GCONST> 3.145940e+00
~s "dur_s2_945"
<STREAM> 1
<MEAN> 1
 2.391762e+00
<VARIANCE> 1
 2.388391e+00
<GCONST> 2.708497e+00
<STREAM> 2
<MEAN> 1
 1.636147e+00
<VARIANCE> 1
 9.584632e-01
<GCONST> 1.795453e+00
<STREAM> 3
<MEAN> 1
 3.611060e+00
<VARIANCE> 1
 1.032658e+01
<GCONST> 4.172598e+00
<STREAM> 4
<MEAN> 1
 1.462231e+00
<VARIANCE> 1
 8.903381e-01
<GCONST> 1.721723e+00
<STREAM> 5
<MEAN> 1
 1.371026e+00
<VARIANCE> 1
 3.679846e-01
<GCONST> 8.381627e-01
~s "dur_s2_960"
<STREAM> 1
<MEAN> 1
 1.000007e+00
<VARIANCE> 1
 7.805993e-02
<GCONST> -7.124014e-01
<STREAM> 2
<MEAN> 1
 1.205080e+00
<VARIANCE> 1
 1.630224e-01
<GCONST> 2.400923e-02
<STREAM> 3
<MEAN> 1
 1.038098e+00
<VARIANCE> 1
 7.674760e-01
<GCONST> 1.573229e+00
<STREAM> 4
<MEAN> 1
 1.119961e+00
<VARIANCE> 1
 8.903381e-01
<GCONST> 1.721723e+00
<STREAM> 5
<MEAN> 1
 1.000001e+00
<VARIANCE> 1
 9.033201e-02
<GCONST> -5.663865e-01
~s "dur_s2_985"
<STREAM> 1
<MEAN> 1
 5.004150e+00
<VARIANCE> 1
 8.595174e+00
<GCONST> 3.989078e+00
<STREAM> 2
<MEAN> 1
 2.320833e+00
<VARIANCE> 1
 1.006363e+00
<GCONST> 1.844220e+00
<STREAM> 3
<MEAN> 1
 2.103862e+00
<VARIANCE> 1
 2.531730e+00
<GCONST> 2.766780e+00
<STREAM> 4
<MEAN> 1
 4.285798e+00
<VARIANCE> 1
 8.670991e+00
<GCONST> 3.997860e+00
<STREAM> 5
<MEAN> 1
 3.269002e+00
<VARIANCE> 1
 1.137196e+01
<GCONST> 4.269028e+00
~s "dur_s2_1049"
<STREAM> 1
<MEAN> 1
 1.036263e+00
<VARIANCE> 1
 7.805993e-02
<GCONST> -7.124014e-01
<STREAM> 2
<MEAN> 1
 1.906108e+00
<VARIANCE> 1
 1.606307e+00
<GCONST> 2.311815e+00
<STREAM> 3
<MEAN> 1
 1.519972e+00
<VARIANCE> 1
 7.674760e-01
<GCONST> 1.573229e+00
<STREAM> 4
<MEAN> 1
 1.223274e+00
<VARIANCE> 1
 8.903381e-01
<GCONST> 1.721723e+00
<STREAM> 5
<MEAN> 1
 1.054167e+00
<VARIANCE> 1
 9.033201e-02
<GCONST> -5.663865e-01
~s "dur_s2_1100"
<STREAM> 1
<MEAN> 1
 1.676452e+00
<VARIANCE> 1
 1.437606e+00
<GCONST> 2.200856e+00
<STREAM> 2
<MEAN> 1
 1.585533e+00
<VARIANCE> 1
 1.050901e+00
<GCONST> 1.887524e+00
<STREAM> 3
<MEAN> 1
 1.569331e+00
<VARIANCE> 1
 1.201204e+00
<GCONST> 2.021201e+00
<STREAM> 4
<MEAN> 1
 1.535633e+00
<VARIANCE> 1
 1.410970e+00
<GCONST> 2.182154e+00
<STREAM> 5
<MEAN> 1
 1.911582e+00
<VARIANCE> 1
 1.686237e+00
<GCONST> 2.360377e+00
~s "dur_s2_1108"
<STREAM> 1
<MEAN> 1
 3.811824e+00
<VARIANCE> 1
 2.123580e+00
<GCONST> 2.590980e+00
<STREAM> 2
<MEAN> 1
 6.986216e+00
<VARIANCE> 1
 7.169411e+00
<GCONST> 3.807701e+00
<STREAM> 3
<MEAN> 1
 3.103570e+00
<VARIANCE> 1
 9.843869e-01
<GCONST> 1.822141e+00
<STREAM> 4
<MEAN> 1
 4.485530e+00
<VARIANCE> 1
 3.295727e+00
<GCONST> 3.030504e+00
<STREAM> 5
<MEAN> 1
 4.034074e+00
<VARIANCE> 1
 2.821615e+00
<GCONST> 2.875186e+00
~s "dur_s2_14"
<STREAM> 1
<MEAN> 1
 4.285858e+00
<VARIANCE> 1
 5.599789e+00
<GCONST> 3.560606e+00
<STREAM> 2
<MEAN> 1
 3.169018e+00
<VARIANCE> 1
 5.136293e+00
<GCONST> 3.474209e+00
<STREAM> 3
<MEAN> 1
 6.979855e+00
<VARIANCE> 1
 1.782895e+01
<GCONST> 4.718700e+00
<STREAM> 4
<MEAN> 1
 1.910834e+00
<VARIANCE> 1
 1.210644e+00
<GCONST> 2.029029e+00
<STREAM> 5
<MEAN> 1
 3.406915e+00
<VARIANCE> 1
 4.787014e+00
<GCONST> 3.403784e+00
~s "dur_s2_21"
<STREAM> 1
<MEAN> 1
 1.261560e+01
<VARIANCE> 1
 5.377522e+01
<GCONST> 5.822690e+00
<STREAM> 2
<MEAN> 1
 6.976524e+00
<VARIANCE> 1
 4.791179e+01
<GCONST> 5.707239e+00
<STREAM> 3
<MEAN> 1
 2.621480e+00
<VARIANCE> 1
 1.925345e+00
<GCONST> 2.492982e+00
<STREAM> 4
<MEAN> 1
 1.412347e+00
<VARIANCE> 1
 8.903381e-01
<GCONST> 1.721723e+00
<STREAM> 5
<MEAN> 1
 1.341353e+00
<VARIANCE> 1
 4.813906e-01
<GCONST> 1.106801e+00
~s "dur_s2_40"
<STREAM> 1
<MEAN> 1
 1.795167e+00
<VARIANCE> 1
 1.641038e-01
<GCONST> 3.062069e-02
<STREAM> 2
<MEAN> 1
 1.791648e+00
<VARIANCE> 1
 1.001665e+00
<GCONST> 1.839541e+00
<STREAM> 3
<MEAN> 1
 3.111858e+01
<VARIANCE> 1
 8.204852e+02
<GCONST> 8.547773e+00
<STREAM> 4
<MEAN> 1
 5.985334e+00
<VARIANCE> 1
 4.388782e+01
<GCONST> 5.619514e+00
<STREAM> 5
<MEAN> 1
 4.860878e+00
<VARIANCE> 1
 2.644378e+01
<GCONST> 5.112898e+00
~s "dur_s2_69"
<STREAM> 1
<MEAN> 1
 6.400789e+00
<VARIANCE> 1
 1.079143e+01
<GCONST> 4.216630e+00
<STREAM> 2
<MEAN> 1
 2.253958e+00
<VARIANCE> 1
 1.015915e+00
<GCONST> 1.853667e+00
<STREAM> 3
<MEAN> 1
 1.507635e+00
<VARIANCE> 1
 7.674760e-01
<GCONST> 1.573229e+00
<STREAM> 4
<MEAN> 1
 1.295709e+00
<VARIANCE> 1
 8.903381e-01
<GCONST> 1.721723e+00
<STREAM> 5
<MEAN> 1
 1.170812e+00
<VARIANCE> 1
 1.416363e-01
<GCONST> -1.166160e-01
~s "dur_s2_70"
<STREAM> 1
<MEAN> 1
 7.784240e+00
<VARIANCE> 1
 3.826004e+01
<GCONST> 5.482283e+00
<STREAM> 2
<MEAN> 1
 1.624013e+00
<VARIANCE> 1
 1.467510e+00
<GCONST> 2.221444e+00
<STREAM> 3
<MEAN> 1
 1.540444e+00
<VARIANCE> 1
 7.674760e-01
<GCONST> 1.573229e+00
<STREAM> 4
<MEAN> 1
 6.521725e+00
<VARIANCE> 1
 7.685820e+01
<GCONST> 6.179839e+00
<STREAM> 5
<MEAN> 1
 1.121051e+01
<VARIANCE> 1
 1.276655e+02
<GCONST> 6.687291e+00
~s "dur_s2_81"
<STREAM> 1
<MEAN> 1
 4.270799e+00
<VARIANCE> 1
 1.964931e+01
<GCONST> 4.815919e+00
<STREAM> 2
<MEAN> 1
 1.560941e+00
<VARIANCE> 1
 1.150295e+00
<GCONST> 1.977895e+00
<STREAM> 3
<MEAN> 1
 1.986481e+00
<VARIANCE> 1
 1.229584e+00
<GCONST> 2.044553e+00
<STREAM> 4
<MEAN> 1
 2.560311e+00
<VARIANCE> 1
 3.830949e+00
<GCONST> 3.180990e+00
<STREAM> 5
<MEAN> 1
 1.816117e+00
<VARIANCE> 1
 1.184539e+00
<GCONST> 2.007231e+00
~h "xx~#-dZ+@@=k:1_3/A/0_0_0/B/1-1-3:1-1&1-3#1-3$1-2>0-1<0-2|@@/C/1+0+2/D/0_0/E/content+1:1+3&1+1#0+2/F/det_1/G/0_0/H/3=3:1=2&L-L%/I/6_5/J/9+8-2"
<BEGINHMM>
<NUMSTATES> 3
<STATE> 2
~s "dur_s2_14"
~t "TrP_4"
<ENDHMM>
~h "@@~k-D+@=k:1_2/A/1_1_3/B/1-0-2:1-1&2-2#1-2$1-2>1-1<1-1|@/C/1+1+3/D/content_1/E/det+1:2+2&2+1#1+1/F/content_1/G/0_0/H/3=3:1=2&L-L%/I/6_5/J/9+8-2"
<BEGINHMM>
<NUMSTATES> 3
<STATE> 2
~s "dur_s2_487"
~t "TrP_6"
<ENDHMM>
~h "t~t-V+m=b:2_2/A/1_1_2/B/1-1-3:1-2&3-4#2-3$2-2>1-2<1-3|V/C/0+0+4/D/content_1/E/content+2:3+3&2+1#1+2/F/det_1/G/3_3/H/6=5:2=1&L-L%/I/0_0/J/9+8-2"
<BEGINHMM>
<NUMSTATES> 3
<STATE> 2
~s "dur_s2_780"
~t "TrP_8"
<ENDHMM>
~h "b~@-lw+z=D:3_2/A/1_1_3/B/0-0-4:2-1&4-3#3-3$3-2>1-1<1-2|@/C/1+0+2/D/content_1/E/content+2:3+3&2+1#1+2/F/det_1/G/3_3/H/6=5:2=1&L-L%/I/0_0/J/9+8-2"
<BEGINHMM>
<NUMSTATES> 3
<STATE> 2
~s "dur_s2_81"
~t "TrP_1"
<ENDHMM>
~h "D~@-g+@U=lw:1_4/A/1_0_2/B/1-1-4:1-1&6-1#4-1$3-1>1-0<3-0|@U/C/0+0+0/D/det_1/E/content+1:5+1&3+0#2+0/F/0_0/G/3_3/H/6=5:2=1&L-L%/I/0_0/J/9+8-2"
<BEGINHMM>
<NUMSTATES> 3
<STATE> 2
~s "dur_s2_563"
~t "TrP_8"
<ENDHMM>
~h "D~@-k+O=d:1_3/A/1_0_2/B/1-1-3:1-1&3-1#2-1$1-1>1-0<2-0|O/C/1+0+3/D/det_1/E/content+1:3+1&2+0#2+0/F/cc_1/G/0_0/H/3=3:1=2&L-L%/I/6_5/J/9+8-2"
<BEGINHMM>
<NUMSTATES> 3
<STATE> 2
~s "dur_s2_1108"
~t "TrP_7"
<ENDHMM>
~h "pau~a-n+d=aU:2_2/A/1_1_3/B/1-0-3:1-1&1-6#1-5$1-4>0-1<0-1|a/C/1+1+2/D/content_1/E/cc+1:1+5&1+3#0+1/F/content_1/G/3_3/H/6=5:2=1&L-L%/I/0_0/J/9+8-2"
<BEGINHMM>
<NUMSTATES> 3
<STATE> 2
~s "dur_s2_682"
~t "TrP_8"
<ENDHMM>
~h "t~V-m+b=@:3_1/A/1_1_2/B/1-1-3:1-2&3-4#2-3$2-2>1-2<1-3|V/C/0+0+4/D/content_1/E/content+2:3+3&2+1#1+2/F/det_1/G/3_3/H/6=5:2=1&L-L%/I/0_0/J/9+8-2"
<BEGINHMM>
<NUMSTATES> 3
<STATE> 2
~s "dur_s2_159"
~t "TrP_10"
<ENDHMM>
~h "k~D-@+k=O:2_1/A/1_1_3/B/1-0-2:1-1&2-2#1-2$1-2>1-1<1-1|@/C/1+1+3/D/content_1/E/det+1:2+2&2+1#1+1/F/content_1/G/0_0/H/3=3:1=2&L-L%/I/6_5/J/9+8-2"
<BEGINHMM>
<NUMSTATES> 3
<STATE> 2
~s "dur_s2_1049"
~t "TrP_2"
<ENDHMM>
~h "V~m-b+@=lw:1_4/A/1_1_3/B/0-0-4:2-1&4-3#3-3$3-2>1-1<1-2|@/C/1+0+2/D/content_1/E/content+2:3+3&2+1#1+2/F/det_1/G/3_3/H/6=5:2=1&L-L%/I/0_0/J/9+8-2"
<BEGINHMM>
<NUMSTATES> 3
<STATE> 2
~s "dur_s2_960"
~t "TrP_9"
<ENDHMM>
~h "#~dZ-@@+k=D:2_2/A/0_0_0/B/1-1-3:1-1&1-3#1-3$1-2>0-1<0-2|@@/C/1+0+2/D/0_0/E/content+1:1+3&1+1#0+2/F/det_1/G/0_0/H/3=3:1=2&L-L%/I/6_5/J/9+8-2"
<BEGINHMM>
<NUMSTATES> 3
<STATE> 2
~s "dur_s2_21"
~t "TrP_4"
<ENDHMM>
~h "@~lw-z+D=@:4_1/A/1_1_3/B/0-0-4:2-1&4-3#3-3$3-2>1-1<1-2|@/C/1+0+2/D/content_1/E/content+2:3+3&2+1#1+2/F/det_1/G/3_3/H/6=5:2=1&L-L%/I/0_0/J/9+8-2"
<BEGINHMM>
<NUMSTATES> 3
<STATE> 2
~s "dur_s2_985"
~t "TrP_9"
<ENDHMM>
~h "aU~t-t+V=m:1_3/A/1_1_2/B/1-1-3:1-2&3-4#2-3$2-2>1-2<1-3|V/C/0+0+4/D/content_1/E/content+2:3+3&2+1#1+2/F/det_1/G/3_3/H/6=5:2=1&L-L%/I/0_0/J/9+8-2"
<BEGINHMM>
<NUMSTATES> 3
<STATE> 2
~s "dur_s2_839"
~t "TrP_4"
<ENDHMM>
~h "@~g-@U+lw=d:2_3/A/1_0_2/B/1-1-4:1-1&6-1#4-1$3-1>1-0<3-0|@U/C/0+0+0/D/det_1/E/content+1:5+1&3+0#2+0/F/0_0/G/3_3/H/6=5:2=1&L-L%/I/0_0/J/9+8-2"
<BEGINHMM>
<NUMSTATES> 3
<STATE> 2
~s "dur_s2_611"
~t "TrP_10"
<ENDHMM>
~h "lw~d-#+xx=xx:xx_xx/A/1_1_4/B/xx-xx-xx:xx-xx&xx-xx#xx-xx$xx-xx>xx-xx<xx-xx|xx/C/0+0+0/D/content_1/E/xx+xx:xx+xx&xx+xx#xx+xx/F/0_0/G/6_5/H/xx=xx:1=2&0/I/0_0/J/9+8-2"
<BEGINHMM>
<NUMSTATES> 3
<STATE> 2
~s "dur_s2_603"
~t "TrP_7"
<ENDHMM>
~h "a~n-d+aU=t:3_1/A/1_1_3/B/1-0-3:1-1&1-6#1-5$1-4>0-1<0-1|a/C/1+1+2/D/content_1/E/cc+1:1+5&1+3#0+1/F/content_1/G/3_3/H/6=5:2=1&L-L%/I/0_0/J/9+8-2"
<BEGINHMM>
<NUMSTATES> 3
<STATE> 2
~s "dur_s2_1100"
~t "TrP_3"
<ENDHMM>
~h "xx~xx-#+dZ=@@:xx_xx/A/0_0_0/B/xx-xx-xx:xx-xx&xx-xx#xx-xx$xx-xx>xx-xx<xx-xx|xx/C/1+1+3/D/0_0/E/xx+xx:xx+xx&xx+xx#xx+xx/F/content_1/G/0_0/H/xx=xx:1=2&0/I/3_3/J/9+8-2"
<BEGINHMM>
<NUMSTATES> 3
<STATE> 2
~s "dur_s2_40"
~t "TrP_4"
<ENDHMM>
~h "lw~z-D+@=g:1_2/A/0_0_4/B/1-0-2:1-1&5-2#3-2$3-2>2-1<2-1|@/C/1+1+4/D/content_2/E/det+1:4+2&3+1#1+1/F/content_1/G/3_3/H/6=5:2=1&L-L%/I/0_0/J/9+8-2"
<BEGINHMM>
<NUMSTATES> 3
<STATE> 2
~s "dur_s2_69"
~t "TrP_6"
<ENDHMM>
~h "n~d-aU+t=t:1_2/A/1_0_3/B/1-1-2:1-1&2-5#1-4$1-3>1-1<0-1|aU/C/1+1+3/D/cc_1/E/content+1:2+4&1+2#0+1/F/content_2/G/3_3/H/6=5:2=1&L-L%/I/0_0/J/9+8-2"
<BEGINHMM>
<NUMSTATES> 3
<STATE> 2
~s "dur_s2_679"
~t "TrP_7"
<ENDHMM>
~h "@~k-O+d=pau:2_2/A/1_0_2/B/1-1-3:1-1&3-1#2-1$1-1>1-0<2-0|O/C/1+0+3/D/det_1/E/content+1:3+1&2+0#2+0/F/cc_1/G/0_0/H/3=3:1=2&L-L%/I/6_5/J/9+8-2"
<BEGINHMM>
<NUMSTATES> 3
<STATE> 2
~s "dur_s2_714"
~t "TrP_2"
<ENDHMM>
~h "d~pau-a+n=d:1_3/A/1_1_3/B/1-0-3:1-1&1-6#1-5$1-4>0-1<0-1|a/C/1+1+2/D/content_1/E/cc+1:1+5&1+3#0+1/F/content_1/G/3_3/H/6=5:2=1&L-L%/I/0_0/J/9+8-2"
<BEGINHMM>
<NUMSTATES> 3
<STATE> 2
~s "dur_s2_945"
~t "TrP_5"
<ENDHMM>
~h "@U~lw-d+#=xx:4_1/A/1_0_2/B/1-1-4:1-1&6-1#4-1$3-1>1-0<3-0|@U/C/0+0+0/D/det_1/E/content+1:5+1&3+0#2+0/F/0_0/G/3_3/H/6=5:2=1&L-L%/I/0_0/J/9+8-2"
<BEGINHMM>
<NUMSTATES> 3
<STATE> 2
~s "dur_s2_826"
~t "TrP_3"
<ENDHMM>
~h "z~D-@+g=@U:2_1/A/0_0_4/B/1-0-2:1-1&5-2#3-2$3-2>2-1<2-1|@/C/1+1+4/D/content_2/E/det+1:4+2&3+1#1+1/F/content_1/G/3_3/H/6=5:2=1&L-L%/I/0_0/J/9+8-2"
<BEGINHMM>
<NUMSTATES> 3
<STATE> 2
~s "dur_s2_264"
~t "TrP_2"
<ENDHMM>
~h "k~O-d+pau=a:3_1/A/1_0_2/B/1-1-3:1-1&3-1#2-1$1-1>1-0<2-0|O/C/1+0+3/D/det_1/E/content+1:3+1&2+0#2+0/F/cc_1/G/0_0/H/3=3:1=2&L-L%/I/6_5/J/9+8-2"
<BEGINHMM>
<NUMSTATES> 3
<STATE> 2
~s "dur_s2_160"
~t "TrP_3"
<ENDHMM>
~h "O~d-pau+a=n:xx_xx/A/1_1_3/B/xx-xx-xx:xx-xx&xx-xx#xx-xx$xx-xx>xx-xx<xx-xx|xx/C/1+0+3/D/content_1/E/xx+xx:xx+xx&xx+xx#xx+xx/F/cc_1/G/3_3/H/xx=xx:1=2&0/I/6_5/J/9+8-2"
<BEGINHMM>
<NUMSTATES> 3
<STATE> 2
~s "dur_s2_70"
~t "TrP_3"
<ENDHMM>
~h "d~aU-t+t=V:2_1/A/1_0_3/B/1-1-2:1-1&2-5#1-4$1-3>1-1<0-1|aU/C/1+1+3/D/cc_1/E/content+1:2+4&1+2#0+1/F/content_2/G/3_3/H/6=5:2=1&L-L%/I/0_0/J/9+8-2"
<BEGINHMM>
<NUMSTATES> 3
<STATE> 2
~s "dur_s2_120"
~t "TrP_4"
<ENDHMM>
~h "g~@U-lw+d=#:3_2/A/1_0_2/B/1-1-4:1-1&6-1#4-1$3-1>1-0<3-0|@U/C/0+0+0/D/det_1/E/content+1:5+1&3+0#2+0/F/0_0/G/3_3/H/6=5:2=1&L-L%/I/0_0/J/9+8-2"
<BEGINHMM>
<NUMSTATES> 3
<STATE> 2
~s "dur_s2_262"
~t "TrP_1"
<ENDHMM>
~h "m~b-@+lw=z:2_3/A/1_1_3/B/0-0-4:2-1&4-3#3-3$3-2>1-1<1-2|@/C/1+0+2/D/content_1/E/content+2:3+3&2+1#1+2/F/det_1/G/3_3/H/6=5:2=1&L-L%/I/0_0/J/9+8-2"
<BEGINHMM>
<NUMSTATES> 3
<STATE> 2
~s "dur_s2_837"
~t "TrP_2"
<ENDHMM>
~h "dZ~@@-k+D=@:3_1/A/0_0_0/B/1-1-3:1-1&1-3#1-3$1-2>0-1<0-2|@@/C/1+0+2/D/0_0/E/content+1:1+3&1+1#0+2/F/det_1/G/0_0/H/3=3:1=2&L-L%/I/6_5/J/9+8-2"
<BEGINHMM>
<NUMSTATES> 3
<STATE> 2
~s "dur_s2_121"
~t "TrP_4"
<ENDHMM>
